tree
version=v4
num_class=12
num_tree_per_iteration=12
label_index=0
max_feature_idx=33
objective=multiclass num_class:12
feature_names=Column_0 Column_1 Column_2 Column_3 Column_4 Column_5 Column_6 Column_7 Column_8 Column_9 Column_10 Column_11 Column_12 Column_13 Column_14 Column_15 Column_16 Column_17 Column_18 Column_19 Column_20 Column_21 Column_22 Column_23 Column_24 Column_25 Column_26 Column_27 Column_28 Column_29 Column_30 Column_31 Column_32 Column_33
feature_infos=[1:99.939940075361335] [0:0.10000000000000001] [0.80000000000000004:0.98000000000000009] [0:0.050000000000000003] none none [12:111.96843012658658] [2:143.00673192590372] [1.0395890472123899:8] none [17.223361823361827:100] [75:374.99874665880145] none none [53.111428571428576:70] [0.14999999999999999:0.46888571428571435] [0.20000000000000001:1] [0.40000000000000002:0.64509803921568631] [0.10000000000000001:1] [0:0.10000000000000001] [0:0.20000000000000001] [0:0.050000000000000003] [0:0.080000000000000002] [0:27] none none none none [0.0012487512487512555:1] [0.0061752049275925506:1] none none [0:23] [1:12]
tree_sizes=3325 3327 462 2858 999 1182 663 3332 2200 3350 3352 3373 3278 3325 3568 3452 3407 3479 3532 3391 3416 3384 3380 3420 3303 3407 3543 3450 3434 3464 3527 3400 3418 3367 3386 3413 3378 3424 3544 3486 3432 3474 3529 3393 3431 3400 3426 3449 3383 3422 3552 3473 3458 3468 3525 3395 3417 3369 3438 3468 3385 3419 3547 3476 3461 3484 3536 3396 3434 3398 3397 3475 3398 3401 3549 3502 3487 3480 3532 3393 3425 3400 3443 3478 3400 3435 3546 3491 3491 3495 3531 3412 3463 3408 3468 3420 3375 3504 3532 3472 3490 3485 3535 3434 3457 3402 3460 3463 3367 3412 3546 3481 3489 3478 3543 3409 3464 3420 3430 3488 3422 3507 3535 3500 3490 3475 3535 3415 3466 3418 3492 3484 3430 3504 3538 3496 3497 3500 3534 3442 3454 3420 3469 3483 3402 3441 3534 3525 3497 3481 3538 3421 3453 3420 3479 3463 3433 3482 3533 3524 3508 3487 3539 3434 3449 3444 3499 3490 3435 3517 3536 3508 3502 3476 3531 3455 3454 3420 3495 3495 3439 3514 3546 3491 3496 3471 3540 3434 3462 3409 3490 3478 3428 3480 3543 3516 3500 3513 3550 3411 3479 3434 3479 3513 3451 3525 3543 3486 3514 3522 3551 3441 3461 3428 3444 3478 3368 3525 3549 3516 3514 3506 3551 3465 3459 3434 3478 3429 3471 3476 3546 3482 3520 3521 3544 3464 3475 3430 3418 3411 3419 3525 3545 3512 3520 3519 3546 3457 3471 3426 3456 3464 3465 3469 3547 3510 3511 3501 3545 3453 3483 3424 3416 3521 3506 3491 3537 3511 3522 3498 3550 3453 3461 3419 3441 3445 3436 3419 3541 3497 3519 3519 3552 3433 3478 3421 3419 3430 3471 3529 3541 3542 3522 3499 3548 3449 3497 3418 3439 3527 3436 3511 3547 3502 3529 3524 3560 3430 3497 3425 3433 3422 3417 3488 3552 3491 3519 3514 3548 3478 3489 3416 3456 3479 3504 3441 3557 3563 3525 3535 3559 3433 3501 3426 3491 3476 3424 3426 3547 3558 3530 3535 3559 3432 3498 3433 3471 3504 3513 3431 3561 3564 3537 3524 3555 3459 3505 3446 3477 3505 3460 3424 3558 3553 3531 3545 3563 3464 3504 3438 3506 3467 3435 3475 3558 3563 3530 3540 3568 3458 3468 3435 3461 3475 3450 3416 3551 3547 3536 3539 3570 3459 3443 3431 3484 3521 3465 3433 3563 3519 3535 3544 3570 3472 3462 3429 3479 3468 3457 3432 3557 3532 3539 3550 3570 3453 3451 3455 3441 3476 3468 3512 3566 3525 3546 3546 3569 3446 3465 3444 3489 3472 3463 3537 3571 3516 3544 3549 3570 3429 3472 3463 3441 3432 3532 3522 3575 3526 3545 3551 3574 3455 3448 3448 3536 3466 3493 3523 3570 3534 3539 3555 3576 3436 3469 3437 3517 3448 3530 3490 3569 3541 3538 3556 3544 3447 3466 3449 3508 3461 3535 3504 3569 3563 3553 3557 3546 3432 3469 3452 3527 3465 3486 3535 3584 3532 3556 3554 3528 3453 3481 3456 3532 3495 3536 3545 3586 3532 3553 3557 3524 3457 3466 3451 3539 3501 3537 3507 3594 3569 3562 3565 3544 3459 3467 3443 3514 3493 3549 3549 3592 3572 3556 3560 3544 3440 3463 3451 3518 3507 3421 3563 3595 3587 3552 3570 3549 3437 3462 3471 3542 3534 3470 3519 3599 3527 3559 3569 3546 3449 3441 3454 3554 3487 3486 3508 3599 3533 3557 3571 3559 3446 3458 3458 3537 3530 3486 3546 3595 3519 3568 3582 3554 3469 3466 3474 3517 3513 3509 3461 3603 3439 3566 3579 3549 3458 3476 3451 3545 3527 3557 3550 3599 3596 3566 3580 3555 3449 3464 3458 3496 3517 3496 3555 3619 3445 3575 3578 3569 3464 3466 3457 3546 3444 3533 3553 3611 3436 3571 3583 3560 3440 3475 3478 3450 3452 3540 3586 3599 3524 3580 3588 3567 3445 3467 3472 3449 3465 3507 3554 3605 3460 3570 3586 3570 3445 3482 3493 3514 3484 3554 3559 3613 3459 3579 3578 3569 3447 3477 3482 3466 3483 3537 3580 3614 3466 3581 3588 3576 3461 3482 3492 3486 3455 3516 3559 3621 3436 3584 3596 3587 3454 3478 3497 3519 3463 3529 3462 3627 3454 3585 3591 3586 3451 3482 3450 3487 3533 3510 3540 3624 3432 3575 3596 3585 3446 3492 3447 3514 3453 3517 3527 3628 3471 3586 3604 3587 3489 3490 3457 3515 3527 3503 3557 3625 3536 3568 3597 3582 3442 3463 3462 3522 3493 3491 3526 3631 3478 3582 3602 3593 3444 3506 3468 3487 3526 3498 3524 3639 3446 3580 3610 3590 3448 3508 3462 3510 3523 3527 3473 3636 3537 3583 3606 3588 3438 3510 3446 3521 3540 3524 3555 3628 3461 3590 3624 3574 3488 3497 3466 3470 3526 3429 3517 3629 3518 3584 3614 3584 3460 3490 3446 3518 3442 3545 3572 3646 3475 3584 3625 3593 3459 3526 3454 3504 3553 3450 3555 3645 3537 3586 3621 3579 3459 3520 3469 3489 3559 3510 3539 3638 3520 3585 3605 3591 3500 3510 3445 3493 3538 3430 3586 3653 3494 3581 3621 3596 3492 3526 3477 3447 3552 3540 3536 3647 3536 3589 3620 3621 3447 3507 3474 3496 3558 3573 3526 3656 3461 3580 3616 3606 3481 3503 3467 3472 3544 3529 3528 3647 3610 3590 3620 3624 3463 3499 3482 3477 3563 3507 3579 3645 3619 3590 3617 3602 3474 3533 3491 3490 3549 3478 3482 3657 3612 3590 3642 3625 3497 3514 3456 3541 3557 3449 3577 3655 3619 3582 3641 3605 3453 3509 3478 3559 3556 3561 3560 3657 3624 3589 3639 3605 3497 3535 3494 3560 3560 3470 3485 3648 3627 3579 3638 3619 3472 3517 3474 3567 3567 3453 3594 3657 3630 3580 3641 3604 3509 3527 3469 3466 3546 3429 3590 3659 3634 3578 3651 3634 3462 3534 3485 3489 3556 3559 3598 3667 3611 3582 3650 3602 3479 3524 3493 3561 3555 3486 3525 3669 3615 3590 3654 3634 3455 3528 3491 3576 3560 3542 3585 3671 3508 3583 3647 3612 3458 3536 3510 3579 3569 3417 3574 3675 3601 3587 3658 3635 3486 3526 3519 3567 3553 3547 3586 3673 3609 3593 3667 3607 3496 3525 3485 3487 3226 3514 3538 3676 3520 3593 3653 3642 3493 3524 3506 3531 3533

Tree=0
num_leaves=31
num_cat=0
split_feature=0 32 32 0 33 33 33 32 0 32 33 0 0 0 33 33 0 0 0 33 0 0 0 0 0 8 16 6 7 8
split_gain=19990.9 184.321 139.631 146.625 287.983 100.016 148.674 132.201 98.2832 87.1889 183.833 102.389 77.8224 73.9394 96.3026 77.7109 51.4019 170.931 115.146 49.9078 38.0291 31.5328 14.5708 10.3615 2.25811 9.62019 91.6774 1.13687e-13 8.88178e-16 8.88178e-16
threshold=55.055920977831882 1.0000000180025095e-35 7.5000000000000009 92.286924125259631 7.5000000000000009 4.5000000000000009 10.500000000000002 19.500000000000004 70.662145829885148 4.5000000000000009 8.5000000000000018 82.373833981856578 81.765363896376385 70.662145829885148 4.5000000000000009 6.5000000000000009 75.048116724685258 71.494085187139561 81.440742246596116 5.5000000000000009 92.145518675778291 95.499137925066535 75.523116256062295 79.351938554633378 25.879987179786781 6.9999800765422027 0.81367256801317822 106.85188598947774 44.532836018365536 5.9065784927978999
decision_type=2 2 2 2 2 2 2 2 2 2 2 2 2 2 2 2 2 2 2 2 2 2 2 2 2 2 2 2 2 2
left_child=24 -2 9 5 21 7 16 8 -4 10 13 19 -10 -3 -15 -16 17 -7 -18 -11 -13 -5 -8 -12 25 28 -27 -26 29 -1
right_child=1 2 3 4 -6 6 22 -9 12 11 23 20 -14 14 15 -17 18 -19 -20 -21 -22 -23 -24 -25 27 26 -28 -29 -30 -31
leaf_value=-4.7649682147232344 -0.82761683172557987 -2.7377278001363523 -2.0910453739778054 -3.9878593891315952 -1.6292659360201251 -2.4155694396787393 -1.6889124467563259 -2.4793540218066457 -0.51411651917921919 -2.9517142883427425 -3.4697868387371695 -3.6448113490055549 -1.5445172257849062 -1.0644499976201871 -2.8221961507441367 -1.5270147747580722 -3.2486583111297889 -0.8794240867650398 -2.1746054627510971 -1.9066369022022616 -2.8221961507441367 -3.1571568514301869 -1.2032194307615525 -2.9517142883427452 -4.7649682147232344 -3.7288231139343786 -4.7649682147232344 -4.7649682147232344 -4.7649682147232335 -4.7649682147232335
leaf_weight=8.2806935682892746 0.24127895012497802 0.22197663411498092 0.29918589815497376 0.1930231600999831 0.36674400418996811 0.82999958842992849 0.30883705615997303 0.32813937216997136 0.37639516219496727 0.19302316009998299 0.1930231600999831 0.35709284618496895 0.35709284618496895 0.33779053017497063 0.23162779211997986 0.23162779211997986 0.39569747820496537 0.23162779211997986 0.67558106034994125 0.27988358214497566 0.23162779211997986 0.27988358214497566 0.30883705615997314 0.19302316009998322 413.73549251630902 0.24127895012497824 1.8530223369598389 0.27988358214497466 0.19302316009998399 0.22197663411498147
leaf_count=858 25 23 31 20 38 86 32 34 39 20 20 37 37 35 24 24 41 24 70 29 24 29 32 20 42869 25 192 29 20 23
internal_value=-4.71872 -2.18766 -2.23187 -2.07867 -2.68077 -1.9557 -2.12916 -1.60509 -1.32729 -2.53888 -2.28106 -2.88107 -1.01576 -1.93023 -1.70647 -2.17461 -2.32698 -2.08041 -2.57133 -2.3332 -3.32116 -3.49622 -1.44607 -3.21075 -4.76438 -4.7418 -4.6456 -4.76497 -4.76497 -4.76497
internal_weight=432.468 7.66302 7.42174 4.95104 0.839651 4.11139 2.75058 1.36081 1.03267 2.4707 1.40907 1.06163 0.733488 1.02302 0.801046 0.463256 2.13291 1.06163 1.07128 0.472907 0.588721 0.472907 0.617674 0.386046 424.805 10.79 2.0943 414.015 8.69569 8.50267
internal_count=44810 794 769 513 87 426 285 141 107 256 146 110 76 106 83 48 221 110 111 49 61 49 64 40 44016 1118 217 42898 901 881
is_linear=0
shrinkage=1


Tree=1
num_leaves=31
num_cat=0
split_feature=0 32 32 33 0 0 33 33 32 0 32 33 0 0 33 33 33 0 0 0 0 0 0 0 28 32 17 17 8 32
split_gain=20405.9 186.152 133.621 147.53 173.507 207.967 279.01 171.29 128.163 111.512 87.1889 183.833 102.389 73.9394 96.3026 77.7109 49.9078 46.3321 178.522 115.146 43.5073 38.0291 16.2948 10.3615 0.201866 3.93568 0.0222543 0.236359 0.640002 1.8994
threshold=60.184875633793453 1.0000000180025095e-35 7.5000000000000009 10.500000000000002 92.286924125259631 94.241234179903316 5.5000000000000009 4.5000000000000009 19.500000000000004 70.662145829885148 4.5000000000000009 8.5000000000000018 82.373833981856578 70.662145829885148 4.5000000000000009 6.5000000000000009 5.5000000000000009 75.048116724685258 71.494085187139561 81.440742246596116 88.18449569535548 92.145518675778291 71.044750244976257 79.351938554633378 0.0018731268731268834 22.500000000000004 0.61698727015558719 0.61737165711599229 6.9999800765422027 8.5000000000000018
decision_type=2 2 2 2 2 2 2 2 2 2 2 2 2 2 2 2 2 2 2 2 2 2 2 2 2 2 2 2 2 2
left_child=24 -2 10 4 7 -6 -7 8 9 -4 11 13 16 -3 -15 -16 -12 18 -9 -19 22 -14 -5 -13 25 -1 -26 28 -28 -30
right_child=1 2 3 20 5 6 -8 17 -10 -11 12 23 21 14 15 -17 -18 19 -20 -21 -22 -23 -24 -25 26 -27 27 -29 29 -31
leaf_value=-4.7649682147232344 -3.5215940937766064 -1.6114831253658628 -2.1746054627511042 -2.9716401556656047 -0.077645139726048029 -0.96576951183077409 -3.3520430772838914 -1.8937227547059261 -1.8698569036955552 -3.3334519570544217 -1.3974966371594646 -0.87942408676504069 -0.70439957649664642 -3.2847609278820151 -1.5270147747580722 -2.8221961507441367 -2.4425740232999438 -1.100552614372408 -3.4697868387371691 -2.1746054627510971 -3.5314621423555539 -1.5270147747580722 -2.4252857290709859 -1.3974966371594686 -4.7649682147232344 -4.5577391945654631 -4.7649682147232344 -4.7649682147232344 -4.6249486065085241 -4.7649682147232344
leaf_weight=4.5456954203546038 0.24127895012497802 0.22197663411498092 0.28953474014997505 0.25093010812997807 0.20267431810498227 0.28953474014997482 0.21232547610998154 0.80104611441493057 0.32813937216997136 0.73348800837993622 0.19302316009998299 0.1930231600999831 0.35709284618496895 0.33779053017497063 0.23162779211997986 0.23162779211997986 0.27988358214497566 0.39569747820496537 0.23162779211997986 0.67558106034994125 0.20267431810498238 0.23162779211997986 0.29918589815497398 0.19302316009998322 379.464230440557 0.24127895012497891 2.7216265574097624 36.761260841041803 0.35709284618496917 0.75279032438993454
leaf_count=471 25 23 30 26 21 30 22 83 34 76 20 20 37 35 24 24 29 41 24 70 21 24 31 20 39318 25 282 3809 37 78
internal_value=-4.71872 -2.15493 -2.11027 -2.26112 -2.14455 -1.42943 -1.97535 -2.29038 -2.72968 -3.00548 -1.81034 -2.06815 -1.46814 -2.41898 -2.64274 -2.17461 -2.01601 -2.00825 -2.24723 -1.77788 -2.90522 -1.02805 -2.6745 -1.13846 -4.76473 -4.75452 -4.76485 -4.76374 -4.75192 -4.71992
internal_weight=432.468 7.62441 7.38314 4.91244 4.15965 0.704535 0.50186 3.45511 1.35116 1.02302 2.4707 1.40907 1.06163 1.02302 0.801046 0.463256 0.472907 2.10395 1.03267 1.07128 0.75279 0.588721 0.550116 0.386046 424.844 4.78697 420.057 40.5928 3.83151 1.10988
internal_count=44810 790 765 509 431 73 52 358 140 106 256 146 110 106 83 48 49 218 107 111 78 61 57 40 44020 496 43524 4206 397 115
is_linear=0
shrinkage=1


Tree=2
num_leaves=3
num_cat=0
split_feature=6 0
split_gain=41075.8 5.68434e-14
threshold=32.189737053001558 99.094029094164412
decision_type=2 2
left_child=1 -1
right_child=-2 -3
leaf_value=-4.7649682147232344 0.41575728922104727 -4.7649682147232344
leaf_weight=428.40525268390775 3.8604632019996634 0.20267431810498138
leaf_count=44389 400 21
internal_value=-4.71872 -4.76497
internal_weight=432.468 428.608
internal_count=44810 44410
is_linear=0
shrinkage=1


Tree=3
num_leaves=26
num_cat=0
split_feature=8 16 0 32 32 10 28 28 7 19 29 28 33 33 16 28 33 29 6 7 14 0 7 7 28
split_gain=1390.12 1229.68 491.599 349.301 630.95 548.501 46.5288 133.012 21.0382 21.1394 24.1221 18.2767 14.6971 11.1767 4.93985 10.2514 5.52378 4.27973 5.68434e-14 3.55271e-15 3.55271e-15 8.88178e-16 4.44089e-16 1.11022e-16 1.11022e-16
threshold=6.9999800765422027 0.99876856150354654 55.055920977831882 3.5000000000000004 21.500000000000004 39.055469312180712 0.56880619380619701 0.35651848151848353 9.5357953985910306 1.0000000180025095e-35 0.23632994283571082 0.059315684315684646 7.5000000000000009 11.500000000000002 0.75490196078431393 0.048076923076923343 8.5000000000000018 0.36463823174381843 106.74427193987934 114.09747150997157 53.239387755102051 98.446908017646464 39.625878542457393 37.596314999196828 0.2241508491508504
decision_type=2 2 2 2 2 2 2 2 2 2 2 2 2 2 2 2 2 2 2 2 2 2 2 2 2
left_child=18 2 3 8 5 6 7 -5 9 10 12 13 -2 -11 15 -6 -17 -16 -1 20 -3 -4 -7 -10 -13
right_child=1 19 21 4 14 22 -8 -9 23 11 -12 24 -14 -15 17 16 -18 -19 -20 -21 -22 -23 -24 -25 -26
leaf_value=-4.7649682147232344 -4.1893320476183105 -4.7649682147232344 -4.7649682147232344 -4.011687651835194 -4.2468956643288056 -4.7649682147232344 -4.6079765327855284 -2.6926780131455215 -4.7649682147232344 -4.5223786871575893 -3.77816335682909 -4.7649682147232335 -4.7649682147232335 -4.3559635696750023 -4.7649682147232344 -4.6490683153061365 -4.5500994150204761 -4.5059319395260209 -4.7649682147232344 -4.7649682147232344 -4.7649682147232344 -4.7649682147232344 -4.7649682147232335 -4.7649682147232335 -4.7649682147232335
leaf_weight=341.27459821477532 0.26058126613497457 0.53081369027495284 7.2383685037493697 19.514641486108317 0.19302316009998222 2.4996499232947822 0.31848821416497131 0.19302316009998222 0.56941832229495126 12.160459086298937 0.20267431810498238 0.45360442623496133 0.19302316009998322 1.100232012569905 0.91686001047492005 4.3140676282346249 2.0943012870848179 0.19302316009998322 0.28953474014997382 0.21232547610998054 36.645446944981813 0.31848821416497219 0.22197663411498059 0.27988358214497566 0.27988358214497566
leaf_count=35361 27 55 750 2022 20 259 33 20 59 1260 21 47 20 114 95 447 217 20 30 22 3797 33 23 29 29
internal_value=-4.71872 -4.54496 -4.39125 -4.3298 -4.23147 -4.09897 -4.00846 -3.99877 -4.52303 -4.509 -4.23166 -4.52201 -4.43428 -4.50857 -4.62232 -4.60591 -4.61672 -4.71992 -4.76497 -4.76497 -4.76497 -4.76497 -4.76497 -4.76497 -4.76497
internal_weight=432.468 90.9043 53.5157 45.9588 30.4591 22.7478 20.0262 19.7077 15.4998 14.6505 0.656279 13.9942 0.453604 13.2607 7.71128 6.60139 6.40837 1.10988 341.564 37.3886 37.1763 7.55686 2.72163 0.849302 0.733488
internal_count=44810 9419 5545 4762 3156 2357 2075 2042 1606 1518 68 1450 47 1374 799 684 664 115 35391 3874 3852 783 282 88 76
is_linear=0
shrinkage=1


Tree=4
num_leaves=8
num_cat=0
split_feature=11 0 0 8 0 8 11
split_gain=41075.8 3.63798e-12 3.63798e-12 1.81899e-12 1.13687e-13 5.68434e-14 7.10543e-15
threshold=125.00472098292217 97.954400818144094 83.214652696418582 5.8421419566086845 91.67923519471951 5.9879835555443295 328.49162282200922
decision_type=2 2 2 2 2 2 2
left_child=1 2 -1 -2 -4 -5 -7
right_child=3 -3 4 5 -6 6 -8
leaf_value=-0.4598155481948919 -0.19946421342069842 -0.4598155481948919 -0.4598155481948919 -0.19946421342069842 -0.4598155481948919 -0.19946421342069845 -0.19946421342069842
leaf_weight=1898.0121345072985 6296.1074388027191 8.0660234391689283 33.992527350783348 320.33635944128036 22.469636723399162 21.125299483537678 5.5693971365690222
leaf_count=9883 32784 42 177 1668 117 110 29
internal_value=-0.258838 -0.459816 -0.459816 -0.199464 -0.459816 -0.199464 -0.199464
internal_weight=8605.68 1962.54 1954.47 6643.14 56.4622 347.031 26.6947
internal_count=44810 10219 10177 34591 294 1807 139
is_linear=0
shrinkage=1


Tree=5
num_leaves=10
num_cat=0
split_feature=10 6 8 10 0 7 6 6 7
split_gain=16393.8 11482 13096.4 4.31491 5.68434e-14 8.88178e-16 2.22045e-16 2.22045e-16 2.22045e-16
threshold=50.038087270280705 32.189737053001558 6.9999800765422027 48.930248383325775 98.828567335428929 39.394654423836073 102.20567337147075 76.778874543142393 21.704183332351281
decision_type=2 2 2 2 2 2 2 2 2
left_child=3 2 -2 4 -1 6 7 -3 -4
right_child=1 5 8 -5 -6 -7 -8 -9 -10
leaf_value=-4.7649682147232344 0.41575728922104815 -4.7649682147232344 -4.7649682147232335 -4.5491046520588894 -4.7649682147232344 -4.7649682147232344 -4.7649682147232344 -4.7649682147232344 -4.7649682147232344
leaf_weight=422.50839514285326 3.8508120439946634 0.99406927451491423 0.23162779211997975 0.23162779211997886 0.23162779211997886 1.5538364388048647 0.31848821416497219 0.99406927451491356 1.5538364388048647
leaf_count=43778 399 103 24 24 24 161 33 103 161
internal_value=-4.71872 -2.66425 -1.2254 -4.76485 -4.76497 -4.76497 -4.76497 -4.76497 -4.76497
internal_weight=432.468 9.49674 5.63628 422.972 422.74 3.86046 2.30663 1.98814 1.78546
internal_count=44810 984 584 43826 43802 400 239 206 185
is_linear=0
shrinkage=1


Tree=6
num_leaves=5
num_cat=0
split_feature=10 8 7 6
split_gain=13445.3 27630.5 7.27596e-12 8.88178e-16
threshold=39.055469312180712 6.9999800765422027 39.394654423836073 102.85229367947666
decision_type=2 2 2 2
left_child=-1 3 -3 -2
right_child=1 2 -4 -5
leaf_value=-4.7649682147232344 -4.7649682147232344 0.4157572892210446 0.41575728922103483 -4.7649682147232344
leaf_weight=420.8870005980134 7.190112713724373 3.4840680398046975 0.37639516219496716 0.53081369027495373
leaf_count=43610 745 361 39 55
internal_value=-4.71872 -3.03806 0.415757 -4.76497
internal_weight=432.468 11.5814 3.86046 7.72093
internal_count=44810 1200 400 800
is_linear=0
shrinkage=1


Tree=7
num_leaves=31
num_cat=0
split_feature=8 16 0 32 32 10 28 10 10 16 28 29 28 17 7 28 33 19 33 17 33 29 28 28 0 17 33 17 17 29
split_gain=5711.22 4854.31 1986.99 1822.97 1793.49 2203.69 58.4424 57.8611 31.55 31.1365 27.8268 20.3342 13.6752 11.0223 10.4272 9.91164 12.2179 7.135 5.19187 3.43949 3.22897 4.41584 1.24009 0.682219 0.528685 1.1712 3.00629 0.419172 2.7659 2.75667
threshold=6.9999800765422027 0.99876856150354654 55.055920977831882 3.5000000000000004 21.500000000000004 32.685983859141963 0.095529470529471069 39.055469312180712 34.714225427350449 0.85212104362173624 0.058066933066933391 0.39765212712348813 0.019355644355644464 0.55358766786162283 114.09747150997157 0.039335664335664551 6.5000000000000009 1.0000000180025095e-35 4.5000000000000009 0.64205620942295372 5.5000000000000009 0.10836157107337165 0.088036963036963525 0.085539460539461029 25.879987179786781 0.60636771632784625 7.5000000000000009 0.61698727015558719 0.62145858312777069 0.35183807968467823
decision_type=2 2 2 2 2 2 2 2 2 2 2 2 2 2 2 2 2 2 2 2 2 2 2 2 2 2 2 2 2 2
left_child=-1 2 3 7 5 6 10 11 12 -8 -5 15 -6 -14 19 16 -2 -17 -13 24 -21 -22 -7 -20 25 -3 -27 -26 29 -29
right_child=1 14 -4 4 8 22 9 -9 -10 -11 -12 18 13 -15 -16 17 -18 -19 23 20 21 -23 -24 -25 27 26 -28 28 -30 -31
leaf_value=-3.3805822669573056 -2.9212885082463775 -3.3805822669573056 -3.3805822669573056 -2.6098887699195341 -3.329353347716471 -3.3805822669573056 -2.6955784325370074 -3.3805822669573056 -3.3805822669573056 -2.9809966968787984 -2.359419143423342 -3.1903034240627783 -3.1273672998287303 -3.2257041390198995 -3.1989524623761656 -3.2446688077469288 -3.167469962915435 -3.1444413439805072 -3.3139846719442208 -3.3805822669573056 -3.2365874669290147 -3.3805822669573051 -3.3139846719442208 -3.3805822669573051 -3.3805822669573056 -3.3805822669573051 -3.2594957305698791 -3.3559164910265333 -3.3805822669573056 -3.2537297050276206
leaf_weight=1328.5389805957675 1.0886279121041291 3.8289671391248694 29.392953626811504 72.337447814643383 0.97601123154163971 10.135501250624653 2.6277225464582434 2.8529559075832358 1.5015557408332814 1.5015557408332822 1.1261668056249607 0.78831676393747274 24.287664107978348 3.2283448427915564 0.82585565745830436 1.8394057825207699 0.93847233802080143 51.240589655935764 0.75077787041664101 1.876944676041602 1.3889390602707865 0.86339455097913731 0.75077787041664201 0.7883167639374733 104.73351292312145 1.3514001667499544 0.82585565745830525 4.0542005002498653 24.888286404311657 0.78831676393747319
leaf_count=35391 29 102 783 1927 26 270 70 76 40 40 30 21 647 86 22 49 25 1365 20 50 37 23 20 21 2790 36 22 108 663 21
internal_value=-3.33305 -3.15447 -2.99961 -2.93697 -2.82307 -2.7098 -2.61634 -3.1608 -3.1572 -2.79937 -2.60605 -3.14988 -3.14543 -3.1389 -3.37611 -3.14377 -3.03526 -3.14791 -3.29465 -3.37712 -3.33215 -3.29179 -3.37599 -3.3481 -3.37845 -3.36393 -3.33465 -3.37909 -3.37386 -3.33928
internal_weight=1682.12 353.579 208.153 178.76 118.473 88.4792 77.5929 60.2875 29.9936 4.12928 73.4636 57.4345 28.492 27.516 145.426 55.1071 2.0271 53.08 2.32741 144.6 4.12928 2.25233 10.8863 1.53909 140.471 6.00622 2.17726 134.464 29.7308 4.84252
internal_count=44810 9419 5545 4762 3156 2357 2067 1606 799 110 1957 1530 759 733 3874 1468 54 1414 62 3852 110 60 290 41 3742 160 58 3582 792 129
is_linear=0
shrinkage=1


Tree=8
num_leaves=20
num_cat=0
split_feature=16 8 17 32 33 32 17 17 29 28 33 33 0 17 32 17 17 0 15
split_gain=34573.3 5888.23 56.8156 10.906 5.11649 4.97731 4.75114 37.1567 4.24076 3.30477 2.43507 3.63983 1.32836 4.84331 0.0979893 0.243459 1.81899e-12 9.09495e-13 1.13687e-13
threshold=0.99876856150354654 6.9999800765422027 0.64205620942295372 7.5000000000000009 5.5000000000000009 14.500000000000002 0.61698727015558719 0.62145858312777069 0.10836157107337165 0.059315684315684646 3.5000000000000004 7.5000000000000009 25.879987179786781 0.60636771632784625 22.500000000000004 0.57727630207705516 0.62706687441395914 98.271070259379911 0.30714285714285727
decision_type=2 2 2 2 2 2 2 2 2 2 2 2 2 2 2 2 2 2 2
left_child=17 -2 6 4 -4 -5 12 9 -7 10 -8 -12 13 18 -14 -16 -9 -1 -3
right_child=1 2 3 5 -6 8 7 16 -10 -11 11 -13 14 -15 15 -17 -18 -19 -20
leaf_value=-2.5120250819904895 -2.5120250819904895 -1.9244180516013847 -2.0579651039625446 -1.9589831710360381 -2.1762496360538583 -2.095803435464874 -2.0923057745697005 -1.9244180516013847 -1.9949308952480775 -1.9778368725458488 -1.9812832480906533 -2.0579651039625451 -1.9244180516013847 -2.0027656556532651 -1.9417006113187112 -1.9244180516013847 -1.9244180516013847 -2.5120250819904895 -1.9244180516013847
leaf_weight=3429.6731332689524 50.543984547257423 3.7439988553524 1.8719994276761993 2.8930900245904922 1.7869085446000097 2.0421811938285828 1.7869085446000079 10.295996852219103 2.1272720769047737 2.8079991415143004 2.6378173753619194 3.7439988553524017 228.12865752726793 2.5527264922857276 2.8930900245904905 6.8923615291714668 48.501803353428841 3.0632717907428733 4.935271218419075
leaf_count=40306 594 44 22 34 21 24 21 121 25 33 31 44 2681 30 34 81 570 36 58
internal_value=-2.46192 -2.00951 -1.93246 -2.04567 -2.11573 -2.00937 -1.92865 -1.94018 -2.04434 -2.02463 -2.04072 -2.02627 -1.92542 -1.94222 -1.92463 -1.92953 -1.92442 -2.51203 -1.92442
internal_weight=3812.92 380.186 329.642 10.7215 3.65891 7.06254 318.921 69.7745 4.16945 10.9767 8.16872 6.38182 249.146 11.232 237.914 9.78545 58.7978 3432.74 8.67927
internal_count=44810 4468 3874 126 43 83 3748 820 49 129 96 75 2928 132 2796 115 691 40342 102
is_linear=0
shrinkage=1


Tree=9
num_leaves=31
num_cat=0
split_feature=8 32 32 16 16 0 10 0 10 32 17 29 33 17 33 17 32 17 33 17 32 15 0 33 17 33 0 0 15 17
split_gain=5711.22 6363.64 5491.48 4342.32 2353.72 1339.67 901.485 718.321 497.05 36.6456 59.9378 43.5952 31.6294 27.074 15.4205 17.1494 10.848 9.01508 14.3851 8.93377 1.82498 1.00828 0.759628 0.735745 0.165649 0.676547 2.84217e-14 2.84217e-14 1.77636e-15 1.77636e-15
threshold=6.9999800765422027 3.5000000000000004 21.500000000000004 0.99876856150354654 0.99876856150354654 60.326699221744768 39.055469312180712 61.917916032482772 36.182842389092407 22.500000000000004 0.57802557344170047 0.32351141453424476 2.5000000000000004 0.64205620942295372 11.500000000000002 0.62788368032768027 1.0000000180025095e-35 0.61698727015558719 7.5000000000000009 0.55358766786162283 1.0000000180025095e-35 0.46531837469461246 25.879987179786781 3.5000000000000004 0.61698727015558719 3.5000000000000004 98.446908017646464 95.348453207503454 0.30714285714285727 0.61682602573489265
decision_type=2 2 2 2 2 2 2 2 2 2 2 2 2 2 2 2 2 2 2 2 2 2 2 2 2 2 2 2 2 2
left_child=-1 3 26 5 7 6 12 8 9 10 -4 -11 19 22 15 -14 -16 21 23 20 -2 29 -5 -19 28 -26 27 -3 -24 -6
right_child=1 2 4 13 17 -7 -8 -9 -10 11 -12 -13 14 -15 16 -17 -18 18 -20 -21 -22 -23 24 -25 25 -27 -28 -29 -30 -31
leaf_value=-3.3805822669573056 -2.5296129973456685 -3.3805822669573056 -2.411889975857894 -3.3361838702819155 -3.3805822669573056 -3.3805822669573056 -3.3805822669573056 -3.3805822669573056 -3.3805822669573056 -2.4702837789086347 -2.0486303666956163 -2.8170641553081293 -2.4386162834389022 -3.091027506030851 -2.3939512297264232 -2.6591083209822228 -2.5786928576160832 -3.3171559859924629 -3.1141918869049672 -2.3960960798073616 -2.5783839633906052 -3.3250842711130684 -3.3805822669573051 -3.3805822669573051 -3.3361838702819155 -3.3805822669573056 -3.3805822669573056 -3.3805822669573056 -3.3805822669573056 -3.3805822669573051
leaf_weight=1328.5389805957675 2.7028003334999049 217.38773237913847 13.62661834806204 1.1261668056249678 8.0333232134580559 4.804978370666503 2.8529559075832358 2.4024891853332511 1.4640168473124493 12.688146010041235 1.2387834861874587 0.97601123154163438 41.668171808123589 0.86339455097913642 1.0135501250624646 0.90093344449996848 3.6788115650415421 0.78831676393747274 0.93847233802080143 0.8633945509791382 6.6068452596664429 0.90093344449997026 6.3065341114997926 1.0886279121041296 1.1261668056249607 3.6037337779998779 0.90093344449996848 1.3138612732291211 10.811201333999632 0.90093344449997026
leaf_count=35391 72 5791 363 30 214 128 76 64 39 338 33 26 1110 23 27 24 98 21 25 23 176 24 168 29 30 96 24 35 288 24
internal_value=-3.33305 -3.15447 -3.27743 -2.78854 -2.77454 -2.57711 -2.51307 -2.54869 -2.48206 -2.43595 -2.38162 -2.49505 -2.46998 -3.3659 -2.45277 -2.44328 -2.53879 -3.35292 -3.27403 -2.54996 -2.56422 -3.3755 -3.37623 -3.35394 -3.37829 -3.37001 -3.38058 -3.38058 -3.38058 -3.38058
internal_weight=1682.12 353.579 264.649 88.9296 45.0467 65.0924 60.2875 32.3961 29.9936 28.5296 14.8654 13.6642 57.4345 23.8372 47.2615 42.5691 4.69236 12.6506 2.81542 10.173 9.30965 9.83519 22.9738 1.87694 21.8476 4.7299 219.603 218.702 17.1177 8.93426
internal_count=44810 9419 7050 2369 1200 1734 1606 863 799 760 396 364 1530 635 1259 1134 125 337 75 271 248 262 612 50 582 126 5850 5826 456 238
is_linear=0
shrinkage=1


Tree=10
num_leaves=31
num_cat=0
split_feature=8 16 0 32 10 32 32 28 32 29 33 16 32 17 33 16 32 33 32 28 33 17 29 33 17 28 17 33 33 32
split_gain=1390.12 1156.08 479.386 439.805 409.361 509.03 53.0812 60.9961 32.7269 27.8761 27.0065 26.7655 23.2103 20.284 26.7892 29.1187 15.7211 14.3017 14.3127 10.897 8.32314 6.84296 10.2032 3.29138 0.394856 3.07954 0.678331 1.2628 2.07229 0.00959038
threshold=6.9999800765422027 0.99876856150354654 55.055920977831882 3.5000000000000004 34.714225427350449 21.500000000000004 5.5000000000000009 0.62562437562437911 22.500000000000004 0.27178818610801575 1.5000000000000002 0.85951228830276938 2.5000000000000004 0.574766177151529 9.5000000000000018 0.9313239631660809 1.5000000000000002 10.500000000000002 1.5000000000000002 0.28284215784215944 4.5000000000000009 0.64205620942295372 0.30806476199006944 8.5000000000000018 0.61698727015558719 0.27659840159840315 0.62145858312777069 8.5000000000000018 10.500000000000002 1.0000000180025095e-35
decision_type=2 2 2 2 2 2 2 2 2 2 2 2 2 2 2 2 2 2 2 2 2 2 2 2 2 2 2 2 2 2
left_child=-1 2 3 10 5 6 11 -8 20 -10 12 -5 16 17 15 -15 29 19 -19 -12 -7 24 23 -23 -3 26 27 -26 -29 -2
right_child=1 21 -4 4 -6 8 7 -9 9 -11 13 -13 -14 14 -16 -17 -18 18 -20 -21 -22 22 -24 -25 25 -27 -28 28 -30 -31
leaf_value=-4.7649682147232344 -4.3449093900791027 -4.7649682147232344 -4.7649682147232344 -3.7341095685302452 -4.7649682147232344 -4.5101784358407286 -4.0706149606387978 -3.2539232760728187 -4.4528763168952654 -3.9554798547319425 -4.6261545170098941 -4.314470344815037 -4.6498409813022503 -4.1455336435994612 -4.7649682147232344 -4.7649682147232335 -3.9015139640658569 -4.3486599152991401 -4.5991849985970168 -4.24689566432881 -4.6700831322334118 -4.7649682147232344 -4.3505101744076935 -4.5491046520588894 -4.7649682147232344 -4.5922773645917587 -4.7649682147232344 -4.5577391945654639 -4.7649682147232335 -4.3332410893945452
leaf_weight=341.5641329549253 0.35709284618496784 28.258590638637543 7.556856717914342 1.8916269689798455 3.1462775096297255 1.1774412766098969 17.642316833138469 0.23162779211997886 3.2041844576597218 0.30883705615997303 10.085460115224119 0.22197663411498059 0.43430211022496223 0.88790653645992168 0.37639516219496716 0.24127895012497902 0.28953474014997482 1.0809296965599053 1.2063947506248949 0.19302316009998399 2.6347661353647709 0.74313916638493427 0.24127895012497902 0.23162779211997986 0.75279032438993343 0.28953474014997471 6.3890665993094444 0.24127895012497902 0.24127895012497902 0.34744168817996979
leaf_count=35391 37 2928 783 196 326 122 1828 24 332 32 1045 23 45 92 39 25 30 112 125 20 273 77 25 24 78 30 662 25 25 36
internal_value=-4.71872 -4.54496 -4.39592 -4.33524 -4.2249 -4.16269 -4.03201 -4.06003 -4.51924 -4.40915 -4.55206 -3.79506 -4.34491 -4.57309 -4.39966 -4.27789 -4.21169 -4.59387 -4.48079 -4.61903 -4.62069 -4.75828 -4.64162 -4.71367 -4.7622 -4.75233 -4.75841 -4.72449 -4.66135 -4.33916
internal_weight=432.468 90.9043 53.5157 45.9588 30.4591 27.3128 19.9875 17.8739 7.32523 3.51302 15.4998 2.1136 1.42837 14.0714 1.50558 1.12919 0.994069 12.5658 2.28732 10.2785 3.81221 37.3886 1.21605 0.974767 36.1725 7.91395 7.62441 1.23535 0.482558 0.704535
internal_count=44810 9419 5545 4762 3156 2830 2071 1852 759 364 1606 219 148 1458 156 117 103 1302 237 1065 395 3874 126 101 3748 820 790 128 50 73
is_linear=0
shrinkage=1


Tree=11
num_leaves=31
num_cat=0
split_feature=8 16 0 10 32 32 28 32 32 29 29 16 16 16 29 16 29 32 17 29 32 29 32 19 29 32 17 33 6 29
split_gain=1390.12 1149.67 476.933 308.439 395.054 592.887 186.18 95.517 49.7879 44.2907 35.372 14.9705 14.2703 11.7408 15.209 11.5346 13.9589 7.79311 6.68698 6.94559 5.44964 4.14458 3.78275 1.57484 11.5754 0.151367 0.689882 2.58311 5.68434e-14 7.10543e-15
threshold=6.9999800765422027 0.92313579724855077 55.055920977831882 39.055469312180712 3.5000000000000004 21.500000000000004 0.32529970029970212 10.500000000000002 5.5000000000000009 0.32253059847132409 0.39010991139079881 0.76960784313725517 0.76960784313725517 0.99876856150354654 0.26267134710233525 0.81367256801317822 0.32351141453424476 1.0000000180025095e-35 0.64205620942295372 0.080133575943726013 5.5000000000000009 0.20787914701219581 20.500000000000004 1.0000000180025095e-35 0.18388472505855338 3.5000000000000004 0.61698727015558719 9.5000000000000018 106.74427193987934 0.16928883222928723
decision_type=2 2 2 2 2 2 2 2 2 2 2 2 2 2 2 2 2 2 2 2 2 2 2 2 2 2 2 2 2 2
left_child=28 2 3 4 9 6 8 -8 -6 11 -11 17 -12 14 22 16 -7 -2 23 20 -20 -13 -3 24 -15 26 -25 -28 -1 -27
right_child=1 13 -4 -5 5 15 7 -9 -10 10 12 21 -14 18 -16 -17 -18 -19 19 -21 -22 -23 -24 25 -26 29 27 -29 -30 -31
leaf_value=-4.7649682147232344 -4.5765781963979872 -4.7649682147232344 -4.7649682147232344 -4.7649682147232344 -4.2962359072235152 -4.5629118378143305 -3.9015139640658538 -2.5670846675953638 -4.0340896592092816 -3.5875306001904521 -4.5122498974576599 -4.7649682147232344 -3.9878593891315957 -4.4307278596300552 -4.307845376139916 -4.7649682147232344 -4.1893320476183158 -4.4862083652724252 -4.3332410893945434 -4.7649682147232344 -4.6386090560904467 -4.5059319395260209 -4.5182670002496979 -4.7649682147232344 -4.7649682147232344 -4.7649682147232344 -4.7649682147232344 -4.5922773645917587 -4.7649682147232344 -4.7649682147232344
leaf_weight=341.27459821477532 3.1848821416497186 0.66592990234494098 7.3734847158193579 3.7543004639446727 2.0267431810498335 6.1863922812044612 0.23162779211997886 0.31848821416497231 17.034293878823519 0.21232547610998231 0.39569747820496559 0.77209264039993364 0.19302316009998322 0.29918589815497343 0.32813937216997147 0.67558106034994114 0.26058126613497723 9.5063906349241716 0.23162779211997875 0.58872063830494881 0.39569747820496559 0.19302316009998322 0.20267431810498238 4.3816257342696181 1.9302316009998319 19.186502113938335 0.85895306244492509 0.28953474014997482 0.28953474014997382 9.2265070527791959
leaf_count=35361 330 69 764 389 210 641 24 33 1765 22 41 80 20 31 34 70 27 985 24 61 41 20 21 454 200 1988 89 30 30 956
internal_value=-4.71872 -4.54496 -4.39225 -4.33111 -4.29157 -4.17769 -4.03579 -3.12895 -4.06196 -4.50213 -4.14078 -4.52332 -4.34032 -4.75201 -4.59785 -4.56841 -4.54781 -4.50889 -4.75694 -4.64162 -4.52586 -4.71316 -4.7074 -4.76082 -4.72011 -4.7635 -4.75593 -4.72143 -4.76497 -4.76497
internal_weight=432.468 90.9043 52.3189 44.9454 41.1911 26.7337 19.6112 0.550116 19.061 14.4574 0.801046 13.6564 0.588721 38.5853 1.19674 7.12255 6.44697 12.6913 37.3886 1.21605 0.627325 0.965116 0.868604 36.1725 2.22942 33.9431 5.53011 1.14849 341.564 28.413
internal_count=44810 9419 5421 4657 4268 2770 2032 57 1975 1498 83 1415 61 3998 124 738 668 1315 3874 126 65 100 90 3748 231 3517 573 119 35391 2944
is_linear=0
shrinkage=1


Tree=12
num_leaves=31
num_cat=0
split_feature=0 0 32 0 33 0 33 32 0 0 33 0 0 0 32 0 32 33 32 0 33 32 0 8 16 32 33 32 0 0
split_gain=1210.87 25.7733 25.3441 19.425 15.2242 18.7607 22.2255 12.6488 12.2454 11.2058 15.2597 11.6166 12.2584 9.62622 22.8949 9.1945 6.15266 4.87683 4.05295 3.18153 2.64852 3.41857 2.2928 7.21816 26.7552 1.19197 1.15804 0.877874 1.00839 0.874384
threshold=55.055920977831882 67.548472366481207 12.500000000000002 76.851030539818439 4.5000000000000009 81.585170432748654 10.500000000000002 8.5000000000000018 63.454470889190894 88.372934180115422 9.5000000000000018 90.670867582428741 94.241234179903316 91.023295700635359 5.5000000000000009 71.30974676830165 7.5000000000000009 8.5000000000000018 14.500000000000002 63.90261780574442 5.5000000000000009 12.500000000000002 25.879987179786781 6.9999800765422027 0.81367256801317822 13.500000000000002 1.5000000000000002 8.5000000000000018 81.585170432748654 85.4285513969226
decision_type=2 2 2 2 2 2 2 2 2 2 2 2 2 2 2 2 2 2 2 2 2 2 2 2 2 2 2 2 2 2
left_child=22 2 17 15 13 6 7 -6 -4 10 29 -11 -13 26 -15 16 -3 19 -16 -2 -17 -22 23 -1 -25 -18 -5 -28 -29 -7
right_child=1 3 8 4 5 9 -8 -9 -10 11 -12 12 -14 14 18 20 25 -19 -20 -21 21 -23 -24 24 -26 -27 27 28 -30 -31
leaf_value=-0.046212288608403283 0.3552323375090532 0.099782717171390603 0.08530109375312607 0.088917877557515457 0.26754018929573581 0.15695382281880621 0.12889291083770002 0.46166265994183209 0.2105823082572662 0.27161707139276181 0.04568553330986496 0.11022843448311936 0.21194196090349357 0.099284551121613274 0.37379066996917643 0.068704658182357756 0.2144981799563237 0.23496403798831944 0.23826072980597446 0.26781613574041069 0.077079781894771202 0.13741616726238118 -0.046221444788422772 0.3178921409299032 -0.046263151485070764 0.16410943086136398 0.10076343660766268 0.10789693007781659 0.14630386402671716 0.19898526205257908
leaf_weight=7.9662707541137916 2.3424742333590967 3.1611577607691315 3.6528694108128548 4.6324354689568308 2.1608908120542796 2.3783461377024668 1.8470936138182876 1.3719096630811689 4.1852305382490158 3.5197658967226735 3.8035793397575617 5.1782819554209691 6.921758035197854 3.0593570824712506 1.1782492101192477 8.5395359583199042 2.4143293127417564 3.2616093624383211 1.0372148267924783 1.8731989525258539 4.7055669669061881 4.6849244870245457 385.15491359122097 0.68504638224840175 1.9127749977633357 2.2838853001594543 4.2602903936058265 3.0261836498975754 3.9265348762273788 2.5792047642171383
leaf_count=901 29 30 37 27 20 25 10 32 40 37 27 59 65 16 25 45 22 31 21 23 33 24 42898 25 192 21 30 15 26 24
internal_value=-0.00760654 0.155801 0.215018 0.143972 0.16189 0.18493 0.269441 0.342925 0.152196 0.166282 0.121021 0.191669 0.168413 0.129424 0.187929 0.108622 0.153715 0.280872 0.31034 0.31639 0.0888562 0.107182 -0.0455911 -0.0226105 0.0497647 0.190003 0.109948 0.118636 0.129587 0.178821
internal_weight=487.705 91.9859 15.3154 76.6705 50.8811 29.7608 5.37989 3.5328 7.8381 24.3809 8.76113 15.6198 12.1 21.1203 5.27482 25.7894 7.85937 7.47728 2.21546 4.21567 17.93 9.39049 395.719 10.5641 2.59782 4.69821 15.8454 11.213 6.95272 4.95755
internal_count=44810 794 160 634 459 299 62 52 77 237 76 161 124 160 62 175 73 83 46 52 102 57 44016 1118 217 43 98 71 41 49
is_linear=0
shrinkage=0.05


Tree=13
num_leaves=31
num_cat=0
split_feature=0 32 33 0 32 0 0 33 32 33 0 0 0 16 33 32 0 33 0 0 32 33 0 33 0 28 32 10 8 8
split_gain=1185.8 14.3097 38.792 23.683 18.4303 15.6883 16.1869 14.0801 40.476 12.1532 11.9268 10.4453 14.3798 6.95863 9.39263 6.91202 6.89969 6.4612 6.20917 9.41067 10.9577 2.21403 2.02112 1.65042 1.70014 0.218118 3.42979 9.27562e-05 6.80383e-05 8.31269e-07
threshold=55.055920977831882 9.5000000000000018 10.500000000000002 92.054942216048815 1.5000000000000002 81.585170432748654 75.27913515983299 5.5000000000000009 19.500000000000004 11.500000000000002 65.106360409687838 70.583494208320928 71.876228233229355 0.91166881531388311 8.5000000000000018 13.500000000000002 95.085699166202716 7.5000000000000009 69.00344109642721 76.280067806191923 4.5000000000000009 6.5000000000000009 76.851030539818439 10.500000000000002 75.523116256062295 0.0018731268731268834 22.500000000000004 39.055469312180712 6.9999800765422027 6.9999800765422027
decision_type=2 2 2 2 2 2 2 2 2 2 2 2 2 2 2 2 2 2 2 2 2 2 2 2 2 2 2 2 2 2
left_child=25 4 3 5 10 6 11 8 -7 -4 -2 15 -13 14 18 -3 -5 -9 -6 -20 -21 -8 -12 -16 -25 26 29 28 -27 -1
right_child=1 2 9 16 13 7 21 17 -10 -11 22 12 -14 -15 23 -17 -18 -19 19 20 -22 -23 -24 24 -26 27 -28 -29 -30 -31
leaf_value=-0.046211076997430996 0.055206954198689942 0.11477886056140468 0.24209962726276207 0.062019214238658284 0.081175527333160358 0.50925170889074844 0.13621981620174411 0.12262471694276189 0.16833980637809781 0.42685084318292149 0.30013465341486645 0.18453661749015118 0.46805674861712615 0.19521415967778066 0.063260519610668184 0.19990790300593184 0.13961813254043412 0.23986420541808143 0.2172572281515886 0.20430121406076981 0.10961565484561581 0.08736839356000714 0.22831259761977082 0.13036644905739139 0.07912896271071955 -0.046213342978035622 0.13638894856875516 -0.046000445023238266 -0.046264684735089545 -0.046264824140149423
leaf_weight=3.3360632276162496 0.85197172686457534 3.2847947254777017 1.8907572478055945 6.4379685111343843 4.7496350705623653 1.5233089663088306 4.1044697538018209 2.2992698699235916 2.0322115123271942 1.6819783374667168 1.8218483086675408 1.0543668288737524 0.77664972282946099 2.9777048705145708 6.3825368732213956 8.6994440071284753 5.1608899831771851 2.4037821367383003 3.6735326480120447 3.872394863516095 14.486005213111637 5.332908920943737 2.1186159551143646 2.6085963845252991 4.2678055875003338 304.27543515339494 0.27367371693253506 4.6865722879301748 81.896641216240823 0.91718582343310107
leaf_count=380 6 28 34 32 32 34 35 22 16 31 24 12 30 26 38 70 35 23 34 47 80 26 31 20 28 34201 25 1190 8129 91
internal_value=-0.00806557 0.15106 0.170751 0.15763 0.131834 0.180114 0.159089 0.239312 0.314398 0.329077 0.224842 0.193568 0.304795 0.121472 0.115988 0.176575 0.0965467 0.182547 0.133027 0.144206 0.129588 0.108615 0.261519 0.0815709 0.0985662 -0.0460952 -0.0351829 -0.0462215 -0.0462242 -0.0462227
internal_weight=489.879 94.4934 46.6828 43.1101 47.8106 31.5112 23.2526 8.25857 3.55552 3.57274 4.79244 13.8153 1.83102 43.0182 40.0405 11.9842 11.5989 4.70305 26.7816 22.0319 18.3584 9.43738 3.94046 13.2589 6.8764 395.386 4.52692 390.859 386.172 4.25325
internal_count=44810 794 428 363 366 296 201 95 50 65 61 140 42 305 279 98 67 45 193 161 127 61 55 86 48 44016 496 43520 42330 471
is_linear=0
shrinkage=0.05


Tree=14
num_leaves=31
num_cat=0
split_feature=6 10 8 0 0 0 32 32 0 32 33 0 32 32 16 28 32 28 32 17 0 28 33 32 32 32 32 17 17 32
split_gain=442.001 6.2032e-05 5.571e-05 1.7543e-05 2.50993e-07 2.17675e-07 1.18335e-07 1.08737e-07 1.37666e-07 8.61577e-08 9.87688e-08 5.39871e-08 3.33502e-08 3.08276e-08 2.22121e-08 4.45667e-08 2.03206e-08 1.67804e-08 8.75798e-09 7.68406e-09 5.24748e-09 3.70096e-09 3.15885e-09 5.81166e-09 1.9048e-09 7.24907e-10 2.1221e-09 6.8502e-10 4.69616e-09 1.80655e-10
threshold=32.189737053001558 39.055469312180712 6.9999800765422027 60.184875633793453 71.30974676830165 80.077132201898621 3.5000000000000004 7.5000000000000009 92.286924125259631 7.5000000000000009 4.5000000000000009 92.669378872200255 3.5000000000000004 22.500000000000004 0.9313239631660809 0.35651848151848353 10.500000000000002 0.049975024975025116 6.5000000000000009 0.64205620942295372 70.058411040278358 0.71366133866134274 2.5000000000000004 3.5000000000000004 22.500000000000004 7.5000000000000009 14.500000000000002 0.61682602573489265 0.62145858312777069 22.500000000000004
decision_type=2 2 2 2 2 2 2 2 2 2 2 2 2 2 2 2 2 2 2 2 2 2 2 2 2 2 2 2 2 2
left_child=1 2 -1 14 6 9 -5 11 -9 12 -11 -7 -6 -3 15 22 21 -2 -8 27 -20 -17 23 -4 -24 -21 -27 29 -29 -16
right_child=17 13 3 4 5 7 18 8 -10 10 -12 -13 -14 -15 19 16 -18 -19 20 25 -22 -23 24 -25 -26 26 -28 28 -30 -31
leaf_value=-0.046213342581502399 0.071246848948366845 -0.045999722681654684 -0.046266587084740129 -0.046164074775370656 -0.046158734812418625 -0.046158831527243128 -0.046188853850483512 -0.04619520658074202 -0.046166910490965864 -0.046119719604049848 -0.046156212616448249 -0.046180672708531954 -0.046188637614302641 -0.046024703071829237 -0.046264913186483909 -0.046253881738947372 -0.046243462360540083 0.071243879042534569 -0.046200878259626807 -0.046270773758455078 -0.04619198539872324 -0.046262895611207819 -0.046263475258121536 -0.046263663606250949 -0.046264828264852099 -0.046265223439183309 -0.046270397068010539 -0.046266835342832185 -0.046264650248120237 -0.046265535023455949
leaf_weight=307.74482448026538 5.0064905881881705 3.0234900158829983 2.6715305242687455 0.30074255261570115 0.19016386196017243 0.79600489139556907 0.21621512435376633 1.2682544589042661 0.65023016138002265 0.27196732489392161 0.58259780192747712 0.43894643522799015 0.18294628150761127 0.12876406684517849 26.625316790305082 0.19645162113010783 0.37340448517352343 95.120145678520203 1.2138618808239696 0.418807785026728 0.19214336946606625 0.27091626264154911 31.903150113299489 4.674424828030169 2.8322275746613732 0.34301160089671612 0.46950364764779806 3.7664392124861461 7.0830515744164586 1.2215857552364457
leaf_count=34591 20 769 264 39 25 105 26 150 87 41 77 54 22 31 2641 20 39 380 141 41 23 27 3175 465 281 34 46 372 703 121
internal_value=-0.0227071 -0.0462217 -0.0462234 -0.0462582 -0.0461778 -0.0461712 -0.0461929 -0.0461782 -0.0461856 -0.0461534 -0.0461446 -0.0461666 -0.0461734 -0.0460007 -0.0462643 -0.0462636 -0.0462522 0.071244 -0.0461982 -0.0462652 -0.0461997 -0.0462591 -0.0462638 -0.0462647 -0.0462636 -0.0462691 -0.0462682 -0.0462651 -0.0462654 -0.0462649
internal_weight=500.178 400.051 396.899 89.1539 6.30407 4.38111 1.92296 3.15344 1.91848 1.22768 0.854565 1.23495 0.37311 3.15225 82.8498 42.9221 0.840772 100.127 1.62222 39.9277 1.40601 0.467368 42.0813 7.34596 34.7354 1.23132 0.812515 38.6964 10.8495 27.8469
internal_count=44810 44410 43610 9019 790 561 229 396 237 165 118 159 47 800 8229 4271 86 400 190 3958 164 47 4185 729 3456 121 80 3837 1075 2762
is_linear=0
shrinkage=0.05


Tree=15
num_leaves=31
num_cat=0
split_feature=8 16 0 32 32 10 33 32 29 16 28 33 17 17 29 16 33 32 10 29 29 0 0 32 32 0 0 32 33 33
split_gain=956.777 638.534 164.026 85.8246 120.115 49.8466 17.5104 54.52 25.3523 9.28888 11.756 6.4118 4.83367 3.32016 3.29401 3.50978 2.35262 0.0536648 5.67563e-05 1.63849e-06 6.83536e-07 2.74357e-07 2.1759e-07 1.27242e-07 1.0856e-07 1.38526e-07 3.79596e-07 8.23816e-08 1.03184e-07 8.01313e-08
threshold=6.9999800765422027 0.99876856150354654 55.055920977831882 21.500000000000004 3.5000000000000004 39.055469312180712 9.5000000000000018 11.500000000000002 0.72769053606614398 0.8813452202543629 0.3315434565434584 2.5000000000000004 0.57802557344170047 0.6033668521544252 0.36349530181299988 0.8813452202543629 8.5000000000000018 1.5000000000000002 50.038087270280705 0.23632994283571082 0.29707508806978217 71.30974676830165 80.077132201898621 4.5000000000000009 7.5000000000000009 92.286924125259631 94.241234179903316 7.5000000000000009 4.5000000000000009 8.5000000000000018
decision_type=2 2 2 2 2 2 2 2 2 2 2 2 2 2 2 2 2 2 2 2 2 2 2 2 2 2 2 2 2 2
left_child=18 2 3 4 9 6 8 -8 -6 10 11 -2 17 14 15 16 -5 -11 -1 -14 -15 23 27 29 -24 -26 -27 -23 -29 -4
right_child=1 -3 21 13 5 -7 7 -9 -10 12 -12 -13 19 20 -16 -17 -18 -19 -20 -21 -22 22 24 -25 25 26 -28 28 -30 -31
leaf_value=-0.046213345527000842 0.20576381973233887 -0.046264916488026858 -0.046186863501811726 0.065060324088675556 0.27048125816075513 -0.045999741500316355 0.22223264023594025 0.44640515677772019 0.6592763619082479 0.15767702112543153 0.46141008793752242 0.12947952107599578 -0.046392524968518083 -0.046250816390526209 0.23117886574203489 -0.046253855050991721 0.123462037039595 0.12590231308963204 -0.045999763013360138 -0.046530463675505312 -0.046366392498723631 -0.046173017855806062 -0.046166567351347658 -0.04620033703992335 -0.04619520658074202 -0.04609928408911531 -0.046188627033818694 -0.046118209989129459 -0.046156212616448249 -0.046139710705503968
leaf_weight=307.75564355403185 3.3707797410898008 39.035509037319571 0.22317822650074859 4.9380535688251204 33.091135995462537 1.1088696820661414 4.8315942771732789 6.1833114186301827 0.42467187158763309 0.24506866186857112 0.29531594552099605 15.067232348024843 0.65828808071091771 0.30495065078139383 0.36026065563783127 0.54194193985313166 2.6497191376984119 0.29027738748118281 3.1422021077014497 0.31990281445905566 0.2203765045851469 0.36475272197276332 1.2270353147760036 1.5368627607822416 1.2682544589042661 0.15755100175738324 0.48447790881618857 0.25759322755038738 0.58259780192747712 0.15110331494361162
leaf_count=34592 265 3874 27 447 1543 282 226 286 20 22 23 1194 53 32 29 57 216 25 799 24 18 46 158 179 150 27 59 39 77 21
internal_value=0.000103484 0.119906 0.199834 0.220373 0.240171 0.285136 0.293382 0.348074 0.275408 0.138812 0.148438 0.143426 0.0196648 0.0756832 0.083231 0.0766748 0.0854547 0.140448 -0.0462112 -0.0464376 -0.0462993 -0.0461782 -0.0461712 -0.046194 -0.0461782 -0.0461856 -0.0461667 -0.0461532 -0.0461446 -0.0461678
internal_weight=431.089 120.191 81.1552 74.9018 65.8864 45.6396 44.5307 11.0149 33.5158 20.2469 18.7333 18.438 1.51354 9.0153 8.48998 8.12971 7.58777 0.535346 310.898 0.978191 0.525327 6.25341 4.34226 1.91114 3.13732 1.91028 0.642029 1.20494 0.840191 0.374282
internal_count=44810 9419 5545 4762 3963 2357 2075 512 1563 1606 1482 1459 124 799 749 720 663 47 35391 77 50 783 556 227 394 236 86 162 116 48
is_linear=0
shrinkage=0.05


Tree=16
num_leaves=31
num_cat=0
split_feature=11 10 0 0 0 32 32 0 0 33 33 32 33 16 28 32 0 32 32 17 28 33 32 32 32 16 32 0 32 8
split_gain=25669.8 597.361 156.88 1.15018 0.870286 0.577744 0.478218 0.644933 1.32273 0.411239 0.312756 0.310175 0.302366 0.295773 0.553745 0.223815 0.218238 0.309538 0.142013 0.105443 0.0451539 0.041762 0.0779978 0.0289592 0.0251797 0.0688427 0.0591085 0.0245807 0.0230826 0.0301167
threshold=125.00472098292217 39.055469312180712 60.184875633793453 71.30974676830165 80.077132201898621 4.5000000000000009 7.5000000000000009 92.286924125259631 94.241234179903316 10.500000000000002 8.5000000000000018 7.5000000000000009 4.5000000000000009 0.9313239631660809 0.35651848151848353 10.500000000000002 92.669378872200255 4.5000000000000009 3.5000000000000004 0.64205620942295372 0.71366133866134274 2.5000000000000004 3.5000000000000004 4.5000000000000009 22.500000000000004 0.76960784313725517 21.500000000000004 70.058411040278358 22.500000000000004 4.558044069730447
decision_type=2 2 2 2 2 2 2 2 2 2 2 2 2 2 2 2 2 2 2 2 2 2 2 2 2 2 2 2 2 2
left_child=1 2 13 5 11 10 16 9 -9 -8 -4 18 -13 14 21 20 17 -6 -5 -15 -16 22 -1 -18 26 -26 -23 -7 -3 -30
right_child=-2 28 3 4 6 27 7 8 -10 -11 -12 12 -14 19 15 -17 23 -19 -20 -21 -22 24 -24 -25 25 -27 -28 -29 29 -31
leaf_value=-0.14964067225274336 0.057994024306251224 -0.062612399995840631 -0.10573291124014071 -0.095933440087020982 -0.10049379279447734 -0.11129055143452871 -0.11129243483198015 -0.080041200463735279 -0.10651522436151904 -0.09678994494111072 -0.090207166156108437 -0.084878883215454282 -0.09513313442259641 -0.14847676778091146 -0.14040035192213174 -0.1336299869624282 -0.10165781290751774 -0.089940882357656529 -0.10655472499745489 -0.15160149744270843 -0.14683440337742867 -0.14741671009122914 -0.14740887735717251 -0.106207040357284 -0.14775651708271606 -0.15321495092974968 -0.14593389470101029 -0.10806116402352393 -0.068236947850349297 -0.062607862697083544
leaf_weight=61.190219089388847 6253.5245562791824 247.17155386507511 7.483231306076048 6.7782238125801069 16.189828842878345 40.68709260225296 34.033718854188919 6.7221130281686809 15.826714292168615 5.7080393135547629 5.7254794836044312 10.947319447994234 20.939738422632217 893.24230591952801 4.7944593727588671 9.5726018249988538 8.6215004324913007 12.173972994089125 5.874759316444397 27.839630365371704 6.3233048021793365 667.72441497445107 108.67974096536636 5.8869138062000266 59.056374713778496 6.4027278572320929 74.728736758232117 6.8902938961982718 4.2751057744026166 5.3493689447641373
leaf_count=264 34591 1155 28 25 60 154 129 27 60 21 21 41 77 3837 20 39 32 45 22 121 27 2857 465 22 253 28 318 26 20 25
internal_value=0.00475082 -0.134746 -0.143432 -0.102454 -0.100099 -0.108254 -0.10258 -0.105377 -0.098623 -0.109209 -0.0990031 -0.0942411 -0.0916127 -0.147925 -0.147329 -0.139234 -0.0985158 -0.0959644 -0.100865 -0.148571 -0.14406 -0.1475 -0.148213 -0.103504 -0.14735 -0.14829 -0.147267 -0.110823 -0.0627059 -0.0651083
internal_weight=8640.36 2386.84 2130.04 210.489 149.703 60.7861 105.163 62.2906 22.5488 39.7418 13.2087 44.54 31.8871 1919.55 998.473 20.6904 42.8722 28.3638 12.653 921.082 11.1178 977.782 169.87 14.5084 807.912 65.4591 742.453 47.5774 256.796 9.62447
internal_count=44810 10219 9019 790 561 229 396 237 87 150 49 165 118 8229 4271 86 159 105 47 3958 47 4185 729 54 3456 281 3175 180 1200 45
is_linear=0
shrinkage=0.05


Tree=17
num_leaves=31
num_cat=0
split_feature=10 8 8 10 10 10 8 10 7 7 8 7 7 10 10 8 10 0 8 0 0 32 32 0 32 33 0 10 32 16
split_gain=432.22 1.25559 2.75415 0.479136 0.396453 2.13185 0.0417812 0.0531367 0.0607705 0.0249093 0.0136401 0.0139454 0.00846713 0.00767024 0.00221435 5.03217e-05 2.15973e-05 1.7543e-05 1.3649e-05 2.50993e-07 2.17675e-07 1.18335e-07 1.08737e-07 1.37666e-07 8.61577e-08 9.87688e-08 5.39871e-08 5.06152e-08 3.33502e-08 2.22121e-08
threshold=49.727721492376922 4.944476285595738 6.9999800765422027 50.44922068876172 78.993426998237382 81.020682957197266 2.5918669312512579 63.809332059300516 29.821466766881954 51.460242010046109 3.9707147630467357 25.545818936095596 23.676049442422073 59.862887827423911 58.093518537146117 6.9999800765422027 39.055469312180712 60.184875633793453 4.1282141452158205 71.30974676830165 80.077132201898621 3.5000000000000004 7.5000000000000009 92.286924125259631 7.5000000000000009 4.5000000000000009 92.669378872200255 48.930248383325775 3.5000000000000004 0.9313239631660809
decision_type=2 2 2 2 2 2 2 2 2 2 2 2 2 2 2 2 2 2 2 2 2 2 2 2 2 2 2 2 2 2
left_child=15 3 -3 -2 6 -6 7 14 -9 -10 11 12 -8 -13 -5 -1 17 29 -12 21 24 -19 26 -24 28 -26 -22 -18 -21 -17
right_child=1 2 -4 4 5 -7 10 8 9 -11 18 13 -14 -15 -16 16 27 19 -20 20 22 -23 23 -25 25 -27 -28 -29 -30 -31
leaf_value=-0.046213342581502399 0.092611557745351458 0.071243879042534541 -0.046000977988689226 0.071243879042534528 0.068106644706842287 -0.045999763183290132 0.063663144151517179 0.052646175057422084 0.064474855930616137 0.070511682859221311 0.071156230621928551 0.071243879042534569 0.068922492365401392 0.069702020561279374 0.069654083609869868 -0.046263557061612309 -0.045999696027923115 -0.046164074775370656 0.071243879042534569 -0.046158734812418625 -0.046158831527243128 -0.046198222292876748 -0.04619520658074202 -0.046166910490965864 -0.046119719604049848 -0.046156212616448249 -0.046180672708531954 -0.04603983158005065 -0.046188637614302641 -0.046265195508717355
leaf_weight=307.74482448026538 2.2662385692819944 1.5018970370292657 0.75152411148883391 4.7560072839260119 3.086380197666585 0.47192070633172978 1.3380996603518718 0.89252473041415026 5.3130719158798456 2.5188924185931683 5.2605723021551958 11.264227777719496 1.7876072628423569 28.409015250392258 4.0601129191927612 42.92210540920496 0.75476841372437675 0.30074255261570115 28.536043703556061 0.19016386196017243 0.79600489139556907 1.6222203746438024 1.2682544589042661 0.65023016138002265 0.27196732489392161 0.58259780192747712 0.43894643522799015 0.087678168900310993 0.18294628150761127 39.927716366015375
leaf_count=34591 10 6 190 19 33 120 27 39 98 14 22 45 16 207 30 4271 192 39 114 25 105 190 150 87 41 77 54 18 22 3958
internal_value=-0.0226556 0.0690512 0.0321423 0.0698833 0.069356 0.0529732 0.0699753 0.0677741 0.0650077 0.0664164 0.0704794 0.0698865 0.066671 0.0701398 0.0705117 -0.046223 -0.0462558 -0.0462582 0.0712302 -0.0461778 -0.0461712 -0.0461929 -0.0461782 -0.0461856 -0.0461534 -0.0461446 -0.0461666 -0.0460039 -0.0461734 -0.0462643
internal_weight=499.955 102.214 2.25342 99.9607 97.6945 3.5583 94.1362 17.5406 8.72449 7.83196 76.5956 42.7989 3.12571 39.6732 8.81612 397.741 89.9963 89.1539 33.7966 6.30407 4.38111 1.92296 3.15344 1.91848 1.22768 0.854565 1.23495 0.842447 0.37311 82.8498
internal_count=44810 990 196 794 784 153 631 200 151 112 431 295 43 252 49 43820 9229 9019 136 790 561 229 396 237 165 118 159 210 47 8229
is_linear=0
shrinkage=0.05


Tree=18
num_leaves=31
num_cat=0
split_feature=10 8 17 8 0 32 28 32 10 32 10 10 0 0 32 32 0 0 32 33 0 32 10 32 33 32 16 28 32 32
split_gain=425.586 16.8181 0.000194571 5.571e-05 1.7543e-05 1.06469e-05 7.71345e-06 2.82971e-06 7.38599e-07 1.9976e-06 3.47014e-07 3.14022e-06 2.50993e-07 2.17675e-07 1.18335e-07 1.08737e-07 1.37666e-07 3.80379e-07 8.61577e-08 9.87688e-08 5.39871e-08 8.63228e-08 4.70883e-08 4.14303e-08 4.09298e-08 3.33502e-08 2.22121e-08 4.45667e-08 2.03206e-08 8.75798e-09
threshold=39.055469312180712 6.9999800765422027 0.61654588188608106 6.9999800765422027 60.184875633793453 3.5000000000000004 0.068056943056943445 21.500000000000004 49.129223650906297 1.5000000000000002 48.930248383325775 51.163104734715063 71.30974676830165 80.077132201898621 3.5000000000000004 7.5000000000000009 92.286924125259631 94.241234179903316 7.5000000000000009 4.5000000000000009 92.669378872200255 4.5000000000000009 51.163104734715063 15.500000000000002 9.5000000000000018 3.5000000000000004 0.9313239631660809 0.35651848151848353 10.500000000000002 6.5000000000000009
decision_type=2 2 2 2 2 2 2 2 2 2 2 2 2 2 2 2 2 2 2 2 2 2 2 2 2 2 2 2 2 2
left_child=3 22 5 -1 26 8 7 10 -3 -10 -7 -12 14 18 -6 20 24 -18 25 23 21 -15 -2 -20 -17 -14 27 -5 -29 -16
right_child=1 2 -4 4 12 6 -8 -9 9 -11 11 -13 13 15 29 16 17 -19 19 -21 -22 -23 -24 -25 -26 -27 -28 28 -30 -31
leaf_value=-0.046213342581502399 -0.046037374015512854 0.07128498660328024 0.071582699814076889 -0.046263784796365698 -0.046164074775370656 0.071243879042534569 0.071313712155953737 0.071278040519486219 0.071329181513001036 0.071286823134252691 0.071287361076114983 0.071243879042534569 -0.046158734812418625 -0.046172344063203072 -0.046188853850483512 -0.046199919117537305 -0.04609928408911531 -0.046188536344523211 -0.046101469991819036 -0.046156212616448249 -0.046180672708531954 -0.046138767737790187 -0.04599976300922079 -0.046140587938761891 -0.046178085990992906 -0.046188637614302641 -0.046265195508717355 -0.046259106754763746 -0.046243462360540083 -0.046199662969528987
leaf_weight=307.74482448026538 0.085539852268993299 7.0120901465415981 5.024184823036193 42.081333040259778 0.30074255261570115 33.792683333158493 5.2607592642307273 8.5140224695205671 5.0111127197742444 6.2609283030033112 5.0087717771530178 24.280668765306473 0.19016386196017243 0.47565879672765754 0.21621512435376633 0.99451007368043043 0.15755100175738324 0.49267915962263942 0.14508698973804712 0.58259780192747712 0.43894643522799015 0.32034609466791153 3.0674813291989267 0.12688033515587449 0.27374438522383571 0.18294628150761127 39.927716366015375 0.46736788377165694 0.37340448517352343 1.406005250290036
leaf_count=34591 20 28 20 4185 39 135 21 34 20 25 20 97 25 60 26 116 27 60 23 77 54 45 780 18 34 22 3958 47 39 164
internal_value=-0.0226928 0.0677003 0.0712794 -0.0462234 -0.0462582 0.0712634 0.0712553 0.071251 0.0712977 0.0713057 0.0712473 0.0712513 -0.0461778 -0.0461712 -0.0461929 -0.0461782 -0.0461856 -0.0461669 -0.0461534 -0.0461446 -0.0461666 -0.0461588 -0.0460008 -0.0461197 -0.0461952 -0.0461734 -0.0462643 -0.0462636 -0.0462522 -0.0461982
internal_weight=500.217 103.318 100.165 396.899 89.1539 95.141 76.8569 71.5961 18.2841 11.272 63.0821 29.2894 6.30407 4.38111 1.92296 3.15344 1.91848 0.65023 1.22768 0.854565 1.23495 0.796005 3.15302 0.271967 1.26825 0.37311 82.8498 42.9221 0.840772 1.62222
internal_count=44810 1200 400 43610 9019 380 307 286 73 45 252 117 790 561 229 396 237 87 165 118 159 105 800 41 150 47 8229 4271 86 190
is_linear=0
shrinkage=0.05


Tree=19
num_leaves=31
num_cat=0
split_feature=8 16 0 32 32 10 29 10 32 33 17 16 28 17 32 29 16 32 14 28 32 29 29 7 29 0 14 17 17 29
split_gain=3972.87 2581.95 692.773 441.645 353.411 217.699 11.1539 9.95569 9.23281 18.3153 8.44021 8.12092 7.44881 6.28734 13.6931 10.3702 5.99202 15.243 6.24693 4.73836 3.72139 2.91925 2.64805 2.3484 0.759664 0.494282 4.55105 0.398857 2.555 2.14576
threshold=6.9999800765422027 0.99876856150354654 55.055920977831882 3.5000000000000004 21.500000000000004 32.685983859141963 0.39765212712348813 29.516279401282983 19.500000000000004 7.5000000000000009 0.64205620942295372 0.96084312600541366 0.019355644355644464 0.55358766786162283 22.500000000000004 0.36349530181299988 0.86242931677846113 2.5000000000000004 61.785714285714299 0.28658841158841319 5.5000000000000009 0.40408709982999852 0.10836157107337165 38.977900758781978 0.47281182397469995 25.879987179786781 53.567504987706783 0.61698727015558719 0.62145858312777069 0.35183807968467823
decision_type=2 2 2 2 2 2 2 2 2 2 2 2 2 2 2 2 2 2 2 2 2 2 2 2 2 2 2 2 2 2
left_child=-1 2 3 6 5 8 7 16 11 -10 25 -5 -6 15 -15 -14 18 -18 -2 24 -12 -7 -22 -9 -8 26 -3 -27 29 -29
right_child=1 10 -4 4 12 21 19 23 9 -11 20 -13 13 14 -16 -17 17 -19 -20 -21 22 -23 -24 -25 -26 27 -28 28 -30 -31
leaf_value=-0.04738001567616093 0.0031828549598569645 0.081871164081662451 -0.047241817793173983 0.3111653772799467 -0.00077993469887016923 -0.046561117590826678 0.018071862491904934 -0.046504572727509894 0.31247464464124936 0.21279452087859113 0.08552943856436529 0.41112627254738521 0.1355981638861882 -0.021914563205835211 0.16161404326526235 0.29833618072956031 0.13441386882675352 0.31921250934104406 0.13067854015404334 0.12137184745288516 0.036523035904819069 0.11036019601651773 -0.047676257085491593 0.11036310324990251 -0.047764892594134044 -0.047607264469447734 -0.047638619182411017 -0.024197579739263939 -0.047605476540170749 0.059606804951558227
leaf_weight=1210.6003801589832 0.97520149499177833 0.77185729891061772 24.403836408630013 143.63385182619095 1.0656621791422356 4.4065580647438756 0.7596726100891823 0.96216069813817628 12.696320079267027 7.2338421642780295 1.499996244907378 2.0609723143279544 31.571802502498031 1.9289583461359132 2.1481321174651384 1.0102473469451059 4.38188188150525 1.4971181228756902 64.885487958788872 0.88679224997758854 1.7789404429495337 0.31775055732578028 1.9655115976929662 0.31725549139082432 1.0352417808026073 109.41011093184352 5.5986535511910906 4.2641042061150101 25.921871777623892 0.93048899620771397
leaf_count=35391 20 19 783 1793 26 275 19 62 158 90 35 26 656 45 51 21 88 30 1327 21 42 15 49 14 25 2796 141 108 663 21
internal_value=0.000161573 0.125192 0.208394 0.230378 0.268002 0.298667 0.126964 0.130642 0.308213 0.276295 -0.043344 0.312579 0.129531 0.133319 0.0747828 0.140644 0.133108 0.181474 0.128791 0.0268158 0.0189835 -0.0360068 -0.00767427 -0.00760626 -0.0199004 -0.0455692 -0.0319471 -0.0461867 -0.0411917 -0.009186
internal_weight=1670.92 460.32 308.179 283.775 208.074 170.349 75.7008 73.0191 165.625 19.9302 152.142 145.695 37.7248 36.6591 4.07709 32.582 71.7397 5.879 65.8607 2.68171 5.24445 4.72431 3.74445 1.27942 1.79491 146.897 6.37051 140.527 31.1165 5.19459
internal_count=44810 9419 5545 4762 3156 2357 1606 1541 2067 248 3874 1819 799 773 96 677 1465 118 1347 65 126 290 91 76 44 3748 160 3588 792 129
is_linear=0
shrinkage=0.05


Tree=20
num_leaves=31
num_cat=0
split_feature=16 8 10 17 33 32 32 17 17 29 29 0 17 10 8 0 17 32 32 32 33 28 0 32 0 11 32 32 0 32
split_gain=19514 1912.92 15.1352 3.3595 2.01307 2.92455 1.38659 0.429755 4.26727 2.32519 2.05999 0.253544 1.00413 0.0908045 0.0292178 0.0174 0.0166649 0.143965 0.00749775 0.00456451 0.00358916 0.000975132 0.000263141 0.000245284 0.000227248 0.000227242 0.000126045 0.000114026 0.000145975 8.54903e-05
threshold=0.99876856150354654 6.9999800765422027 35.130797720797737 0.64205620942295372 5.5000000000000009 8.5000000000000018 15.500000000000002 0.61698727015558719 0.62145858312777069 0.35183807968467823 0.15291239332296572 25.879987179786781 0.60636771632784625 39.055469312180712 6.9999800765422027 60.184875633793453 0.574766177151529 20.500000000000004 22.500000000000004 21.500000000000004 6.5000000000000009 0.4551698301698327 71.30974676830165 4.5000000000000009 80.077132201898621 178.04110760810286 3.5000000000000004 7.5000000000000009 92.286924125259631 7.5000000000000009
decision_type=2 2 2 2 2 2 2 2 2 2 2 2 2 2 2 2 2 2 2 2 2 2 2 2 2 2 2 2 2 2
left_child=13 25 3 7 6 -6 -5 11 9 10 -9 12 23 14 -1 -16 17 -13 -18 21 -21 -10 26 -3 29 -2 -17 -26 -29 -24
right_child=1 2 -4 4 5 -7 -8 8 19 -11 -12 16 -14 -15 15 22 18 -19 -20 20 -22 -23 24 -25 27 -27 -28 28 -30 -31
leaf_value=-0.049724072847141261 -0.049012153565217029 0.28736643574253168 0.17704522287232452 0.30132343388722371 0.20630394901827864 0.26908582624893956 0.25548014485535403 0.25618738862791796 0.28693805040700432 0.21946461633659947 0.29819508122740096 0.28691249469647084 0.25919431119910136 -0.047474369191027162 -0.050283217203027135 -0.049182618026652559 0.28688716372769624 0.27636409021626823 0.28799630347608701 0.28728726782501163 0.28942036763495854 0.28774141201509151 -0.049283407278269881 0.28688134505660623 -0.049213564491615257 -0.049724063195090179 -0.049560641775116335 -0.049525040129074258 -0.049215044305209475 -0.048976653264176995
leaf_weight=2675.7000224739313 1.1494589969515789 3.3635850250721004 3.2530305683612815 3.8028114885091764 3.0876408293843269 4.6462403237819672 2.912888802587986 10.009699188172819 89.169580370187759 2.9259551018476477 4.1194966435432425 29.871767967939377 4.1525554507970801 43.063970800489187 384.43089346587658 2.6140301376581219 359.07261587679386 3.6274051666259757 15.912184581160544 4.5345397442579252 3.4896092712879181 3.9443853348493567 3.2518226057291013 11.569005981087683 10.953189097344877 45.162719167768955 14.095463864505289 11.256911724805834 5.7309462986886492 7.5326924249529839
leaf_count=34007 20 23 26 28 25 34 22 75 609 21 30 204 30 1186 4369 38 2452 25 109 31 24 27 46 79 158 574 186 150 86 116
internal_value=0.000237317 0.259194 0.284583 0.285208 0.261412 0.244021 0.281439 0.285838 0.283169 0.260034 0.268435 0.286576 0.280943 -0.0497546 -0.0497862 -0.0501638 0.286839 0.28577 0.286934 0.287071 0.288215 0.286972 -0.0493357 0.286991 -0.0492641 -0.0497064 -0.0495015 -0.0493394 -0.0494205 -0.0490691
internal_weight=3768.41 609.777 563.465 560.212 14.4496 7.73388 6.7157 545.762 118.193 17.0552 14.1292 427.569 19.0851 3158.63 3115.57 439.866 408.484 33.4992 374.985 101.138 8.02415 93.114 55.4351 14.9326 38.7256 46.3122 16.7095 27.941 16.9879 10.7845
internal_count=44810 4468 3874 3848 109 59 50 3739 817 126 105 2922 132 40342 39156 5149 2790 229 2561 691 55 636 780 102 556 594 224 394 236 162
is_linear=0
shrinkage=0.05


Tree=21
num_leaves=31
num_cat=0
split_feature=8 16 32 32 0 7 28 29 33 29 17 33 33 32 29 17 33 29 33 28 29 32 17 17 17 33 0 32 32 17
split_gain=3789.89 2356.73 1377.72 2236.23 204.202 16.4929 5.48023 21.4446 15.2165 4.84717 3.97959 5.10832 5.21384 4.20519 3.65322 3.07764 2.8381 2.6093 3.90097 2.59052 4.48906 0.996795 2.11114 3.34955 0.86703 0.627835 0.14826 0.642494 0.0798917 0.338731
threshold=6.9999800765422027 0.99876856150354654 3.5000000000000004 21.500000000000004 60.326699221744768 114.09747150997157 0.13299200799200875 0.46783670043625974 4.5000000000000009 0.40222036669156308 0.57802557344170047 1.5000000000000002 2.5000000000000004 22.500000000000004 0.03043801231898138 0.64205620942295372 7.5000000000000009 0.10836157107337165 7.5000000000000009 0.073051948051948465 0.26894359228670467 21.500000000000004 0.60636771632784625 0.62145858312777069 0.61682602573489265 4.5000000000000009 25.879987179786781 3.5000000000000004 1.5000000000000002 0.61698727015558719
decision_type=2 2 2 2 2 2 2 2 2 2 2 2 2 2 2 2 2 2 2 2 2 2 2 2 2 2 2 2 2 2
left_child=-1 2 4 -4 6 15 7 19 -8 10 11 13 -13 -5 16 21 -12 18 25 20 -2 26 -23 24 -24 -17 27 -3 29 -28
right_child=1 5 3 9 -6 -7 8 -9 -10 -11 14 12 -14 -15 -16 17 -18 -19 -20 -21 -22 22 23 -25 -26 -27 28 -29 -30 -31
leaf_value=-0.04738001567616093 0.32000361678760381 -0.0068832766525001657 -0.047492102059172814 0.31338529689064504 -0.047195217401309164 0.16655685737746517 0.14947265314936528 0.49087209813345223 0.33219963081910048 0.24775749891233714 0.28281239686566362 0.26209511861744278 0.31100126705676912 0.39958289206352654 0.39749570317835414 0.01375146326332316 0.36189520538875597 -0.047706991304585757 0.10936508818893897 0.3778194769767369 0.26151566599692661 -0.04761593518177034 0.0010910587574335451 -0.04784591666755067 0.061877876457985918 -0.047840375606225949 -0.047606380504732905 -0.047608551607562152 -0.047606598702015189 -0.026258429929750915
leaf_weight=1210.6003801589832 129.15377656277269 1.2252517454326142 103.82437232788652 2.8842275664210311 3.8953447211533776 0.93299206346273322 1.7498146593570698 1.8471672665327776 3.2656406713649631 2.8520255712792268 2.2430707868188611 6.0783241260796776 52.692684775218368 2.7775136828422546 2.5614796429872513 0.81357995420694285 2.2955224262550473 1.9418625496327875 0.95406829193234433 1.8675551442429412 3.3661763388663521 8.3304883502423746 1.0263572968542569 2.3879602551460266 1.3691742643713949 0.84190879296511412 9.0358932651579362 4.6208753436803818 116.40840724576265 2.3391908071935168
leaf_count=35391 1470 30 2948 32 128 22 19 21 36 38 25 71 617 31 26 20 23 48 22 21 39 212 26 55 34 20 231 118 2977 59
internal_value=-0.000396714 0.1192 0.195569 0.102427 0.309929 -0.0430203 0.319778 0.321668 0.268449 0.311679 0.314228 0.310313 0.305943 0.355672 0.349755 -0.0443127 0.322811 -0.00382034 0.0288372 0.319342 0.318518 -0.0455686 -0.032414 -0.00593975 0.035834 -0.0175714 -0.0468596 -0.0390732 -0.0472158 -0.0432164
internal_weight=1686.18 475.583 323.355 178.209 145.145 152.228 141.25 136.235 5.01546 74.3848 71.5328 64.4328 58.771 5.66174 7.10007 151.295 4.53859 4.55142 2.60956 134.388 132.52 146.744 13.114 4.78349 2.39553 1.65549 133.63 5.84613 127.783 11.3751
internal_count=44810 9419 5545 3811 1734 3874 1606 1551 55 863 825 751 688 63 74 3852 48 110 62 1530 1509 3742 327 115 60 40 3415 148 3267 290
is_linear=0
shrinkage=0.05


Tree=22
num_leaves=31
num_cat=0
split_feature=8 16 0 32 32 10 28 28 32 33 17 33 33 32 16 33 33 33 32 32 32 16 17 33 32 33 28 17 17 32
split_gain=962.057 603.771 163.271 104.519 73.3952 51.1451 17.1191 17.7782 13.0553 11.8181 11.5994 14.7759 12.8575 10.9504 10.8496 9.74151 12.0479 8.58939 8.3609 6.56573 11.275 6.41224 5.66401 11.4981 4.71035 3.34349 2.94335 0.372541 2.50097 3.52003
threshold=6.9999800765422027 0.99876856150354654 55.055920977831882 3.5000000000000004 21.500000000000004 34.714225427350449 0.79607892107892553 0.62562437562437911 22.500000000000004 2.5000000000000004 0.574766177151529 6.5000000000000009 8.5000000000000018 1.5000000000000002 0.75490196078431393 11.500000000000002 4.5000000000000009 4.5000000000000009 2.5000000000000004 2.5000000000000004 1.5000000000000002 0.92128451474016015 0.64205620942295372 10.500000000000002 1.5000000000000002 4.5000000000000009 0.020604395604395722 0.61698727015558719 0.62145858312777069 10.500000000000002
decision_type=2 2 2 2 2 2 2 2 2 2 2 2 2 2 2 2 2 2 2 2 2 2 2 2 2 2 2 2 2 2
left_child=-1 2 3 9 5 6 7 -5 21 14 12 17 18 -14 19 16 -10 -12 -11 20 -2 25 27 26 -13 -6 -24 -3 29 -29
right_child=1 22 -4 4 8 -7 -8 -9 15 10 11 24 13 -15 -16 -17 -18 -19 -20 -21 -22 -23 23 -25 -26 -27 -28 28 -30 -31
leaf_value=-0.046211186877676329 0.19411708027548949 -0.046264954438822184 -0.046178183945088207 0.29234985970284494 0.11619695069145584 -0.046009239951412012 0.032245088413330146 0.60501738365716162 0.10855777552086937 0.01331341417022873 0.19556438328444256 -0.046482348355055603 0.20941893139068007 0.072823515441712894 -0.046594925743333439 -0.046438396478953224 0.2683946305438093 0.46217268143456836 0.13270292168533826 0.093326602819059079 0.41177355488962786 0.30025621084746129 0.14198506884039763 0.37563463992360269 0.1784663379416348 0.024560152317366416 -0.046344237568856743 0.11623563159302384 -0.046268687003304942 -0.046283491465947825
leaf_weight=310.8978456617333 1.8708191243931689 29.521262691356242 6.2534067379310718 42.170841254293919 1.5377139300107936 1.1494961734861124 0.62555595487356086 0.45958975329995055 1.9351122369989751 5.8681771210394782 0.61946153454482489 0.48826073249801982 2.9316125228069723 2.937312041874975 0.40099178021773685 0.41435110894963134 3.0170990186743438 0.58968355180695653 1.9549635080620644 0.71611757669597853 0.87247645156458009 0.28854633215814818 0.26555639272555598 0.23694497719407071 0.44464230444282293 2.8224691865034401 0.94841371080838144 0.61528737749904194 7.016651164740324 0.726672796998173
leaf_count=35391 142 2928 783 2044 123 286 16 11 137 518 38 37 227 256 25 31 217 37 174 66 50 27 25 18 36 264 83 59 691 70
internal_value=0.000162532 0.12061 0.199167 0.219867 0.255587 0.283163 0.29191 0.295721 0.13332 0.121166 0.102041 0.210237 0.0851147 0.141055 0.199608 0.186451 0.205937 0.325586 0.0431483 0.228147 0.26334 0.0719844 -0.039913 0.0570373 0.0607332 0.0568779 -0.00514713 -0.0436265 -0.0343078 0.0282314
internal_weight=430.597 119.699 80.3687 74.1153 54.4208 44.4055 43.256 42.6304 10.0153 19.6945 15.8341 2.14205 13.6921 5.86892 3.8604 5.36656 4.95221 1.20915 7.82314 3.45941 2.7433 4.64873 39.3308 1.45092 0.932903 4.36018 1.21397 37.8799 8.35861 1.34196
internal_count=44810 9419 5545 4762 3156 2357 2071 2055 799 1606 1323 148 1175 483 283 385 354 75 692 258 192 414 3874 126 73 387 108 3748 820 129
is_linear=0
shrinkage=0.05


Tree=23
num_leaves=31
num_cat=0
split_feature=8 16 0 32 32 10 33 28 32 28 16 14 28 33 29 16 28 17 29 10 19 33 19 29 32 17 17 10 29 7
split_gain=955.678 588.246 160.779 68.5154 91.2005 47.5872 13.6696 24.3742 17.9432 9.8891 14.2189 10.5326 13.5112 7.71869 7.37974 9.98793 7.374 5.51719 4.51598 4.47873 3.59879 2.24944 1.42026 7.53244 0.143335 0.62905 2.21059 5.67563e-05 2.59055e-05 1.38184e-06
threshold=6.9999800765422027 0.99876856150354654 55.055920977831882 3.5000000000000004 21.500000000000004 39.055469312180712 10.500000000000002 0.62562437562437911 10.500000000000002 0.050599400599400747 0.8813452202543629 61.785714285714299 0.32529970029970212 1.5000000000000002 0.4136831691789154 0.81367256801317822 0.14423076923077002 0.64205620942295372 0.080133575943726013 29.331786424288211 1.0000000180025095e-35 6.5000000000000009 1.0000000180025095e-35 0.18388472505855338 3.5000000000000004 0.61698727015558719 0.62194372068785853 50.038087270280705 0.33070587901525145 39.625878542457393
decision_type=2 2 2 2 2 2 2 2 2 2 2 2 2 2 2 2 2 2 2 2 2 2 2 2 2 2 2 2 2 2
left_child=27 2 3 9 5 6 7 -5 -8 10 19 -11 16 -6 15 -15 -13 22 21 20 -2 -19 23 -3 25 -24 -27 -1 -12 -21
right_child=1 17 -4 4 13 -7 8 -9 -10 11 28 12 -14 14 -16 -17 -18 18 -20 29 -22 -23 24 -25 -26 26 -28 -29 -30 -31
leaf_value=-0.046213345527000842 0.029035899918512992 0.1829451113930689 -0.0461798370908586 0.30597301751448902 -0.046360387742923503 -0.046000812974683954 0.32651715309296808 0.093325089467421685 0.16455200831346384 0.058430791215699156 -0.046267336643106512 0.3405587698352695 0.088080320203185361 0.12868151830486657 0.32965062932732969 -0.046304683801522993 0.65777558409874948 0.059883915903185453 -0.046264351304058537 -0.045999648054829409 0.1478235797846614 0.2248319826030977 -0.046264954344882481 -0.046264814524021314 -0.046264909681878165 0.1043122781939041 -0.046287038002617048 -0.045999763013360138 -0.046867808638521587 -0.046234218895649964
leaf_weight=307.75564355403185 0.66286614444108138 0.43594816233962719 6.2721930951811364 34.725252416916192 0.76253611780702968 1.113387850113212 2.6794425491243592 1.4019645303487767 4.7262697191908956 0.47549919364973892 0.86013008886948117 0.5165070486254979 0.37110921554267406 7.4268088578246498 0.39874065946787673 0.91605339245870698 0.28390012681484222 0.47043452085927018 0.6119121159426868 0.23187061632051964 16.7332171369344 0.36866813432425261 4.577462436631321 2.0158587303012609 29.670097520574927 0.33200889546424128 0.91580408159643412 3.1422021077014497 0.22702517732977867 0.08609679015353322
leaf_count=34592 51 31 783 1700 63 282 138 24 213 26 88 33 23 622 26 88 17 37 61 59 1286 28 454 200 2944 32 87 799 11 12
internal_value=8.77657e-05 0.119771 0.196953 0.217396 0.246842 0.27678 0.285035 0.297721 0.223152 0.139418 0.129126 0.256898 0.337452 0.106203 0.119511 0.109468 0.453074 -0.038656 0.0570291 0.139898 0.143297 0.132355 -0.0423148 -0.00550971 -0.0448571 -0.0376863 -0.00621668 -0.0462112 -0.0463927 -0.0460632
internal_weight=431.167 120.269 80.8709 74.5987 54.1505 44.6463 43.5329 36.1272 7.40571 20.4482 18.8012 1.64702 1.17152 9.50414 8.7416 8.34286 0.800407 39.3982 1.45101 17.7141 17.3961 0.839103 37.9472 2.45181 35.4954 5.82528 1.24781 310.898 1.08716 0.317967
internal_count=44810 9419 5545 4762 3156 2357 2075 1724 351 1606 1507 99 73 799 736 710 50 3874 126 1408 1337 65 3748 231 3517 573 119 35391 99 71
is_linear=0
shrinkage=0.05


Tree=24
num_leaves=31
num_cat=0
split_feature=0 0 32 33 0 32 33 0 32 32 32 32 0 0 33 33 0 33 0 32 32 0 32 0 0 32 0 0 32 8
split_gain=979.359 12.5423 14.6307 13.0216 13.4568 12.9919 10.4288 10.9912 9.24088 8.50688 13.7434 5.01897 4.80852 5.39044 4.68218 10.0126 9.70028 3.77092 3.31729 3.04584 5.42065 3.03761 3.72179 2.35032 103.058 2.23147 2.14834 1.18648 0.404015 0.000170647
threshold=55.055920977831882 67.548472366481207 20.500000000000004 4.5000000000000009 84.125919733425732 10.500000000000002 8.5000000000000018 83.689612199913967 5.5000000000000009 10.500000000000002 1.5000000000000002 11.500000000000002 86.286253329990345 78.846127588249146 6.5000000000000009 8.5000000000000018 86.140880898788836 9.5000000000000018 90.363085722119749 13.500000000000002 15.500000000000002 64.898098036499974 6.5000000000000009 25.879987179786781 1.2857153807125516 15.500000000000002 90.670867582428741 72.464887897233979 8.5000000000000018 6.9999800765422027
decision_type=2 2 2 2 2 2 2 2 2 2 2 2 2 2 2 2 2 2 2 2 2 2 2 2 2 2 2 2 2 2
left_child=23 5 3 4 25 21 7 -4 -6 10 -5 -11 13 -13 16 -16 -12 19 -10 -7 -21 22 -2 24 -1 27 -14 -3 -29 -25
right_child=1 2 6 9 8 17 -8 -9 18 11 14 12 26 -15 15 -17 -18 -19 -20 20 -22 -23 -24 29 -26 -27 -28 28 -30 -31
leaf_value=-0.046301578890796467 0.28795438151668734 0.048471301487745824 0.30825578328315084 0.087205111411093092 0.081738934965508561 0.2010840759500587 0.11639276161755033 0.15596592866253337 0.1380028744838053 0.049580813834263555 0.29822178873243699 0.12054666773394294 0.18014238310434971 0.04837589457058615 0.11153709539034314 0.1963710699107597 0.13911228636784598 0.089682569827810338 0.20937065983831138 0.068022122972730054 0.17206023397294276 0.17408129042553397 0.19904295113266779 -0.046180861930991086 1.0099671806087251 0.03457575552823567 0.12465266337560972 0.072419385115091758 0.09292178764692717 -0.046262643203553999
leaf_weight=9.9959543729200941 2.171289615333083 3.7425058931112352 2.3421324491500837 6.421651158481839 5.6893747653812152 2.1613922417163831 3.3928919173777103 2.3976797368377447 3.8057958949357271 3.2285506930202272 1.9844276960939198 8.1792292073369044 3.1900264620780936 3.7843370661139479 6.2003112798556668 7.9221786838024855 1.8518590275198219 3.7655962184071541 2.8457496762275696 2.0848153233528137 3.1342103332281113 2.8003342226147652 2.570280522108078 279.0372036548797 0.23638665303587814 5.4933074712753287 3.8487644763663411 5.3631372116506082 4.3532547950744629 82.689105060417205
leaf_count=1112 24 23 27 35 27 17 21 31 25 23 21 54 23 28 48 80 29 25 39 19 31 24 20 34490 6 25 28 30 17 8408
internal_value=-0.00750305 0.127563 0.119499 0.112837 0.0878889 0.164691 0.183314 0.231218 0.128521 0.129587 0.149984 0.107217 0.11701 0.0977175 0.172432 0.159126 0.221416 0.130398 0.168536 0.151171 0.130501 0.215372 0.239758 -0.0455311 -0.0218997 0.0614307 0.149801 0.0723916 0.0816051 -0.0461996
internal_weight=476.684 104.725 86.0372 77.9045 31.2931 18.6879 8.1327 4.73981 12.3409 46.6113 24.3804 22.2309 19.0024 11.9636 17.9588 14.1225 3.83629 11.146 6.65155 7.38042 5.21903 7.5419 4.74157 371.959 10.2323 18.9522 7.03879 13.4589 9.71639 361.726
internal_count=44810 794 634 555 186 160 79 58 91 369 213 156 133 82 178 128 50 92 64 67 50 68 44 44016 1118 95 51 70 47 42898
is_linear=0
shrinkage=0.05


Tree=25
num_leaves=31
num_cat=0
split_feature=0 17 33 32 0 33 33 0 32 33 0 0 33 32 0 32 32 32 28 32 8 10 10 8 11 17 17 32 28 16
split_gain=962.058 9.66111 7.98349 24.2699 8.53489 13.0554 8.17777 9.47177 9.72054 7.50646 6.74166 7.44112 5.7931 5.58649 4.14162 2.32327 4.23827 1.6696 0.229209 3.00409 0.000174452 4.50292e-05 4.33707e-05 2.09021e-06 1.12632e-07 5.57928e-08 4.16185e-07 4.74075e-07 2.75754e-08 5.7396e-08
threshold=55.055920977831882 0.61682602573489265 11.500000000000002 10.500000000000002 91.989601919653026 8.5000000000000018 4.5000000000000009 64.898098036499974 4.5000000000000009 7.5000000000000009 84.700017021881891 76.695608156671398 5.5000000000000009 7.5000000000000009 89.10677124966908 19.500000000000004 10.500000000000002 12.500000000000002 0.0018731268731268834 22.500000000000004 6.9999800765422027 39.055469312180712 50.038087270280705 6.9999800765422027 180.37126381195924 0.61698727015558719 0.62145858312777069 8.5000000000000018 0.32529970029970212 0.99876856150354654
decision_type=2 2 2 2 2 2 2 2 2 2 2 2 2 2 2 2 2 2 2 2 2 2 2 2 2 2 2 2 2 2
left_child=18 2 4 -4 6 12 7 -2 -9 15 11 -11 17 -10 -12 16 -8 -6 19 23 22 25 -20 24 -1 28 27 -27 -22 -30
right_child=1 -3 3 -5 5 -7 9 8 13 10 14 -13 -14 -15 -16 -17 -18 -19 20 -21 21 -23 -24 -25 -26 26 -28 -29 29 -31
leaf_value=-0.046136878033397638 0.090476586090011121 0.20778019932108643 0.10654778898091558 0.308961060800231 0.10941887677109902 0.011026748622320431 0.084154217774397008 0.25634903857041019 0.11380822267722211 0.14117035119967444 0.22730828769239536 0.08165136798057071 0.15537767106092748 0.17954521947241889 0.14117669521242646 0.059233229855522235 0.12928894404812472 0.073053747949106657 -0.046182879850154304 0.11577536894570005 -0.046267572014093337 -0.045987619289963047 -0.045988060390588101 -0.0462666597691326 -0.046182872524004825 -0.046342208454745626 -0.046267671611394695 -0.046276124278326086 -0.046252681786704906 -0.046266803485326961
leaf_weight=0.13942998065613199 4.8021926693618324 3.3297625528648487 4.4276782702654591 2.2251595184206963 6.2906782850623184 4.216519519686698 13.253984529525047 2.7360716704279211 5.4292061030864698 15.49891724158079 2.6579605452716342 7.9422932453453532 4.8678842503577462 7.9855817686766386 2.9388547707349062 3.7439863458275786 8.5607042312622053 6.3347873650491238 280.25975000672042 0.30835412954911579 68.183998824097216 1.4589901356957842 2.8861690824851385 0.92097975406795729 2.9335191762074828 0.41461364645510801 9.3217736752703768 0.78563057165592909 0.96782990079373066 2.804571321234107
leaf_count=22 34 27 33 27 37 31 82 38 23 120 22 48 39 105 21 22 59 26 34202 25 6723 400 789 91 358 35 919 76 99 277
internal_value=-0.00797245 0.123945 0.121258 0.174248 0.117634 0.090003 0.125574 0.152128 0.170458 0.115383 0.132776 0.121004 0.109039 0.15294 0.182081 0.0956212 0.101866 0.0911728 -0.0460652 -0.0345914 -0.0461997 -0.046263 -0.0461809 -0.0462006 -0.0461808 -0.0462678 -0.0462712 -0.046299 -0.0462673 -0.0462632
internal_weight=478.628 107.242 103.912 6.65284 97.2596 21.7099 75.5498 20.9531 16.1509 54.5967 29.038 23.4412 17.4933 13.4148 5.59682 25.5587 21.8147 12.6255 371.386 4.30228 367.083 83.9374 283.146 3.99393 3.07295 82.4784 10.522 1.20024 71.9564 3.7724
internal_count=44810 794 767 60 707 133 574 200 166 374 211 168 102 128 43 163 141 63 44016 496 43520 8529 34991 471 380 8129 1030 111 7099 376
is_linear=0
shrinkage=0.05


Tree=26
num_leaves=31
num_cat=0
split_feature=6 8 10 0 10 10 32 0 32 0 32 32 0 33 32 0 32 28 16 32 32 17 8 7 28 10 16 32 7 10
split_gain=400.464 0.00015298 4.2832e-05 2.23341e-05 2.20397e-05 5.50698e-06 3.15679e-06 2.68765e-07 2.36623e-07 2.19361e-07 1.47475e-07 1.3346e-07 1.28074e-07 9.84962e-08 6.43797e-08 6.16477e-08 3.14785e-08 2.69023e-08 5.38524e-08 4.41682e-08 4.13339e-08 2.10919e-08 1.70046e-08 1.57596e-08 9.65503e-09 9.4187e-09 7.76974e-09 6.8409e-09 3.29152e-09 2.0909e-09
threshold=32.189737053001558 6.9999800765422027 39.055469312180712 60.184875633793453 50.038087270280705 81.020682957197266 21.500000000000004 70.662145829885148 18.500000000000004 80.077132201898621 3.5000000000000004 7.5000000000000009 92.286924125259631 4.5000000000000009 8.5000000000000018 92.669378872200255 12.500000000000002 0.32529970029970212 0.99876856150354654 10.500000000000002 19.500000000000004 0.64205620942295372 2.5918669312512579 30.149377413545938 0.56880619380619701 32.685983859141963 0.99876856150354654 6.5000000000000009 23.676049442422073 36.182842389092407
decision_type=2 2 2 2 2 2 2 2 2 2 2 2 2 2 2 2 2 2 2 2 2 2 2 2 2 2 2 2 2 2
left_child=1 4 3 17 29 6 22 10 -7 13 -5 15 -13 14 -9 -11 -15 21 19 24 -21 25 23 -2 -19 26 -3 -12 -24 -1
right_child=5 2 -4 7 -6 8 -8 9 -10 11 27 12 -14 16 -16 -17 -18 18 -20 20 -22 -23 28 -25 -26 -27 -28 -29 -30 -31
leaf_value=-0.04618287437644511 0.06817163610447248 -0.046267995311853966 -0.045987559933650154 -0.046151901234500671 -0.045988119595327781 0.068146962785648565 0.068134546030208368 -0.046148928684443154 0.068135807935221768 -0.046147678927365932 -0.046182457669117952 -0.04618687256165882 -0.046159184243301996 -0.0461630821586839 -0.046108364778128894 -0.046171373351837519 -0.046144267695764379 -0.046255470035464728 -0.046266790861843432 -0.046230015954574828 -0.046259867414127992 -0.046274340965460778 0.068173708740630459 0.068173991771052794 -0.046269000106650901 -0.04627522229593839 -0.04626698879759155 -0.04619267311496026 0.068175081868967466 -0.046186804946295186
leaf_weight=283.11617449764162 10.814967557787897 43.193900853395462 1.4584602925460775 0.28182654595002432 1.4600893601309497 22.822901323437694 5.5244707614183417 0.16160774370655395 6.004984736442565 0.76853623101487778 0.18777845753356803 1.2383771045133469 0.63016986474394787 0.46094540506601334 0.2478031637147069 0.42705313814803958 0.42943301657214761 0.22663404885679372 3.1689423751085997 0.27778843976557255 0.19905818812549114 1.1736806519329537 5.2874870747327831 20.669356018304825 0.31528431456536055 0.40193346794694562 34.478829456493258 1.2879572929814456 24.995921090245247 0.33874567691236634
leaf_count=34551 45 4255 400 38 399 95 23 22 25 105 23 150 87 60 39 54 59 23 313 30 20 114 22 86 31 39 3404 153 104 41
internal_value=-0.0229131 -0.0461999 -0.0462563 -0.0462607 -0.0461819 0.0681629 0.0681708 -0.0461685 0.0681446 -0.0461619 -0.046185 -0.0461692 -0.0461775 -0.0461447 -0.0461244 -0.0461561 -0.046154 -0.0462675 -0.0462636 -0.0462536 -0.0462425 -0.0462677 0.068174 0.0681732 -0.0462633 -0.0462676 -0.0462675 -0.0461914 0.0681748 -0.0461829
internal_weight=472.051 375.931 91.016 89.5575 284.915 96.1201 67.2922 6.12149 28.8279 4.36393 1.75756 3.06414 1.86855 1.29979 0.409411 1.19559 0.890378 83.4361 4.18771 1.01876 0.476847 79.2483 61.7677 31.4843 0.541918 78.0747 77.6727 1.47574 30.2834 283.455
internal_count=44810 44410 9419 9019 34991 400 280 790 120 576 214 396 237 180 61 159 119 8229 417 104 50 7812 257 131 54 7698 7659 176 126 34592
is_linear=0
shrinkage=0.05


Tree=27
num_leaves=31
num_cat=0
split_feature=8 16 0 32 32 10 28 28 16 29 29 28 17 16 17 28 29 16 32 10 29 29 0 0 32 32 0 0 33 32
split_gain=734.804 414.345 93.6472 41.7485 50.5743 23.4866 8.6321 15.1457 5.84327 5.5381 7.2993 6.01418 3.74489 3.17635 2.55839 1.99337 3.24413 2.26431 0.0274628 4.39195e-05 1.78748e-06 8.06382e-07 3.07653e-07 2.17031e-07 1.60029e-07 1.32868e-07 1.27152e-07 3.78928e-07 9.57449e-08 6.62702e-08
threshold=6.9999800765422027 0.99876856150354654 55.055920977831882 21.500000000000004 3.5000000000000004 39.055469312180712 0.30032467532467705 0.14922577422577507 0.8813452202543629 0.39010991139079881 0.25040767860424545 0.093031968031968545 0.57802557344170047 0.8813452202543629 0.6033668521544252 0.025599400599400742 0.36349530181299988 0.8813452202543629 1.5000000000000002 50.038087270280705 0.23632994283571082 0.29707508806978217 70.662145829885148 80.077132201898621 3.5000000000000004 7.5000000000000009 92.286924125259631 94.241234179903316 4.5000000000000009 8.5000000000000018
decision_type=2 2 2 2 2 2 2 2 2 2 2 2 2 2 2 2 2 2 2 2 2 2 2 2 2 2 2 2 2 2
left_child=19 2 3 4 8 6 7 -6 9 10 -2 -11 18 -8 15 -5 17 -17 -10 -1 -14 -16 24 28 -4 -25 -27 -28 29 -24
right_child=1 -3 22 14 5 -7 13 -9 12 11 -12 -13 20 -15 21 16 -18 -19 -20 -21 -22 -23 23 25 -26 26 27 -29 -30 -31
leaf_value=-0.0461828790694363 0.11316454990854062 -0.046266901965188109 -0.046151794160454229 -0.046587376333100297 0.19608641865340615 -0.045988000079958104 0.066936400062559145 0.44715100490301052 0.11946962111881326 0.084947590649660565 -0.046682976029945845 0.34814010061283374 -0.046398873228611109 0.17547627849889164 -0.04625299942372707 0.07059985314676652 0.21312886925518015 -0.046257923977717448 0.098798319591369588 -0.045988060109702945 -0.046542268861235976 -0.046377816503888947 -0.046148928896706916 -0.046156203948899632 -0.04619338798315268 -0.04618687256165882 -0.0460901190358231 -0.04618120975046678 -0.046153888525129132 -0.04610731074942577
leaf_weight=283.454918124713 21.291847375221561 39.206677279435098 0.27426029928028484 0.37467704806476376 59.198146786540747 1.0311532167252142 1.7268107412382954 0.60685822181403537 0.3013094151392568 0.37999302800744672 0.73896926268935104 0.5062001496553421 0.66343160439282656 1.1056124670431016 0.30544118792750019 8.5462080580182338 0.38511599134653884 0.43566566007211882 0.34424751112237573 2.9227386524435124 0.32319648936390877 0.22451464645564556 0.1616081637330351 1.1882421374320986 1.4745786706916986 1.2383771045133469 0.15060579311102618 0.47189866844564676 0.88254095008596778 0.23436809750273824
leaf_count=34592 1386 3874 37 24 1990 282 49 20 22 24 45 27 53 16 32 654 25 46 25 799 24 18 22 158 175 150 27 59 118 37
internal_value=0.000122656 0.0923538 0.144329 0.156082 0.16719 0.190698 0.194595 0.198634 0.106222 0.112733 0.107803 0.235285 0.0148167 0.109304 0.060681 0.0665012 0.0710247 0.0649317 0.108447 -0.0461809 -0.0464458 -0.0463059 -0.0461692 -0.046162 -0.0461869 -0.0461693 -0.0461776 -0.0461592 -0.0461447 -0.0461243
internal_weight=430.15 143.773 104.566 98.4894 88.2178 63.6686 62.6374 59.805 24.5492 22.917 22.0308 0.886193 1.63219 2.83242 10.2716 9.74167 9.36699 8.98187 0.645557 286.378 0.986628 0.529956 6.07648 4.32764 1.74884 3.04912 1.86088 0.622504 1.27852 0.395976
internal_count=44810 9419 5545 4762 3963 2357 2075 2010 1606 1482 1431 51 124 65 799 749 725 700 47 35391 77 50 783 571 212 394 236 86 177 59
is_linear=0
shrinkage=0.05


Tree=28
num_leaves=31
num_cat=0
split_feature=11 10 0 0 0 32 32 0 0 33 33 0 32 28 16 32 32 32 17 16 32 7 28 0 32 32 32 8 32 17
split_gain=20930.8 311.437 70.2234 0.624201 0.460961 0.361097 0.282342 0.312066 0.75657 0.236 0.200318 0.13223 0.207482 0.115887 0.169217 0.160275 0.184186 0.106771 0.0701494 0.0910759 0.0693603 0.0580707 0.0427367 0.0356463 0.0345328 0.0225336 0.0224053 0.0325702 0.0183254 0.0142252
threshold=125.00472098292217 39.055469312180712 60.184875633793453 70.662145829885148 80.077132201898621 3.5000000000000004 7.5000000000000009 92.286924125259631 94.241234179903316 10.500000000000002 4.5000000000000009 92.145518675778291 4.5000000000000009 0.32529970029970212 0.99876856150354654 10.500000000000002 19.500000000000004 8.5000000000000018 0.64205620942295372 0.99876856150354654 12.500000000000002 72.943019943019991 0.56880619380619701 25.879987179786781 4.5000000000000009 4.5000000000000009 22.500000000000004 4.558044069730447 6.5000000000000009 0.61698727015558719
decision_type=2 2 2 2 2 2 2 2 2 2 2 2 2 2 2 2 2 2 2 2 2 2 2 2 2 2 2 2 2 2
left_child=1 2 13 5 10 -4 11 9 -9 -8 17 12 -6 18 15 22 -17 -5 19 21 25 23 -15 -1 -13 -12 -3 -28 -7 -21
right_child=-2 26 3 4 6 28 7 8 -10 -11 20 24 -14 14 -16 16 -18 -19 -20 29 -22 -23 -24 -25 -26 -27 27 -29 -30 -31
leaf_value=-0.12046482979891648 0.05677231173446412 -0.06069880794271168 -0.088947704061036359 -0.088101555398053241 -0.091725167508683453 -0.096753783715495922 -0.099497486764750953 -0.076256457193515759 -0.096462739259501815 -0.088537589619446258 -0.089531614387868608 -0.091759248014212411 -0.082863399313966163 -0.11870034358505865 -0.12273159424427182 -0.10941249219743271 -0.12157328095603333 -0.079673077222634697 -0.12571751735684661 -0.12274323994961066 -0.087259217512311305 -0.12878794408863725 -0.12431843077478649 -0.12353959275668885 -0.096481892160135418 -0.093361515957061297 -0.066578061384622161 -0.060544124513982056 -0.099659741297663543 -0.12322367541872806
leaf_weight=9.5097756087779981 5869.9802315831184 233.00493973493576 10.280165135860441 5.945913732051852 15.501688361167909 6.2422483563423148 34.88808462023735 6.5183270722627666 16.01229202747345 5.7166142463684073 6.2208106219768551 9.5144412517547625 11.508897900581358 5.9412767291069049 79.893344581127167 7.9488964229822141 5.1187605708837509 10.208971738815306 28.80402660369873 676.39606088399887 16.003344804048538 5.2418646067380896 7.8676228821277618 1070.9108462929726 6.5256660878658286 10.037442266941069 4.0356559455394727 5.0164127200841904 41.447628885507584 199.52263256907463
leaf_count=37 34591 1155 38 22 57 23 129 27 60 21 23 35 43 23 313 30 20 39 114 2650 59 21 31 4207 24 37 20 25 153 783
internal_value=0.00480081 -0.114751 -0.120406 -0.0930225 -0.0913634 -0.0974472 -0.0932069 -0.095336 -0.0906169 -0.0979545 -0.0873201 -0.0900847 -0.0879493 -0.123182 -0.121577 -0.118145 -0.114176 -0.0827752 -0.123268 -0.123232 -0.089596 -0.123538 -0.121901 -0.123513 -0.0936806 -0.0918961 -0.0607936 -0.0632342 -0.0992794 -0.122853
internal_weight=8421.76 2551.78 2309.73 212.573 154.602 57.97 106.186 63.1353 22.5306 40.6047 48.4165 43.0507 27.0106 2097.16 106.77 26.8766 13.0677 16.1549 1990.39 1961.58 32.2616 1085.66 13.8089 1080.42 16.0401 16.2583 242.057 9.05207 47.6899 875.919
internal_count=44810 10219 9019 790 576 214 396 237 87 150 180 159 100 8229 417 104 50 61 7812 7698 119 4265 54 4244 59 60 1200 45 176 3433
is_linear=0
shrinkage=0.05


Tree=29
num_leaves=31
num_cat=0
split_feature=10 8 8 10 10 10 8 10 7 7 8 7 7 10 10 8 10 0 8 0 0 32 32 0 33 32 0 10 7 32
split_gain=391.555 1.07389 2.44746 0.476084 0.344919 1.88136 0.0421529 0.0533887 0.0588781 0.0250211 0.0140228 0.014181 0.00854374 0.00784177 0.00227703 0.000156256 2.24664e-05 2.23339e-05 1.38486e-05 2.68761e-07 2.19363e-07 1.47473e-07 1.3346e-07 1.28074e-07 9.84954e-08 6.438e-08 6.16477e-08 4.0506e-08 3.25822e-08 3.1478e-08
threshold=49.727721492376922 4.944476285595738 6.9999800765422027 50.44922068876172 78.993426998237382 81.020682957197266 2.5918669312512579 63.809332059300516 29.821466766881954 51.460242010046109 3.9707147630467357 25.545818936095596 23.676049442422073 59.862887827423911 58.093518537146117 6.9999800765422027 39.055469312180712 60.184875633793453 4.1282141452158205 70.662145829885148 80.077132201898621 3.5000000000000004 7.5000000000000009 92.286924125259631 4.5000000000000009 8.5000000000000018 92.669378872200255 48.930248383325775 29.525471457661112 12.500000000000002
decision_type=2 2 2 2 2 2 2 2 2 2 2 2 2 2 2 2 2 2 2 2 2 2 2 2 2 2 2 2 2 2
left_child=15 3 -3 -2 6 -6 7 14 -9 -10 11 12 -8 -13 -5 -1 17 -17 -12 21 24 -19 26 -24 25 -21 -22 -18 -20 -26
right_child=1 2 -4 4 5 -7 10 8 9 -11 18 13 -14 -15 -16 16 27 19 28 20 22 -23 23 -25 29 -27 -28 -29 -30 -31
leaf_value=-0.046182874377373395 0.089982702861413355 0.068147052397475094 -0.045988675695547217 0.068147037509024344 0.064911124936836873 -0.045988041816374788 0.060370411987632391 0.049453742503491632 0.061210683087179002 0.067378415342436812 0.068056106184049309 0.068142732599111772 0.065748961316237586 0.066551713113669642 0.066502203415472444 -0.046267481074312555 -0.045987650102014638 -0.046151901234500671 0.068142592177308184 -0.046148928684443154 -0.046147678927365932 -0.04619137302061508 -0.04618687256165882 -0.046159184243301996 -0.046163081919827112 -0.046108364685464164 -0.046171373351837519 -0.04602491492733015 0.068147041052078278 -0.046144267607823274
leaf_weight=283.44394125882536 2.1616514567285767 1.4414482563734048 0.69671183684840787 4.5645851343870181 2.9720335709862407 0.43891185102984298 1.2937171421945088 0.87052799854427387 5.1343942545354366 2.419106132350862 5.0493290433660141 10.810135915875433 1.7199310711584983 27.31105637550354 3.903408657759428 83.436052540317178 0.70047766366042097 0.28182654595002432 5.0447189807891872 0.16160774370655395 0.76853623101487778 1.4757365253753958 1.2383771045133469 0.63016986474394787 0.46094491519033909 0.24780309200286865 0.42705313814803958 0.081396073568612337 22.342444226145744 0.42943281354382634
leaf_count=34591 10 6 190 19 33 120 27 39 98 14 22 45 16 207 30 8229 192 38 21 22 105 176 150 87 60 39 54 18 93 59
internal_value=-0.022861 0.0660031 0.0309563 0.0667834 0.0662492 0.0506409 0.0668377 0.0645852 0.0617669 0.063186 0.0673548 0.0667419 0.06344 0.0670029 0.0673888 -0.0462011 -0.0462584 -0.0462607 0.0681322 -0.0461685 -0.0461619 -0.046185 -0.0461692 -0.0461775 -0.0461447 -0.0461244 -0.0461561 -0.0459915 0.0681462 -0.046154
internal_weight=471.957 98.1741 2.13816 96.036 93.8743 3.41095 90.4634 16.892 8.42403 7.5535 73.5713 41.1348 3.01365 38.1212 8.46799 373.783 90.3394 89.5575 32.4365 6.12149 4.36392 1.75756 3.06414 1.86855 1.29979 0.409411 1.19559 0.781874 27.3872 0.890378
internal_count=44810 990 196 794 784 153 631 200 151 112 431 295 43 252 49 43820 9229 9019 136 790 576 214 396 237 180 61 159 210 114 119
is_linear=0
shrinkage=0.05


Tree=30
num_leaves=31
num_cat=0
split_feature=10 8 32 32 17 8 29 0 10 7 10 10 0 0 32 32 0 0 33 32 0 32 10 33 32 28 16 32 32 17
split_gain=387.891 14.8911 0.00140184 0.00152137 0.000221214 0.000164954 2.28051e-05 2.2334e-05 2.1813e-05 6.82759e-06 3.07551e-07 2.16698e-06 2.6878e-07 2.19354e-07 1.47476e-07 1.33447e-07 1.28108e-07 3.7756e-07 9.8497e-08 6.43854e-08 6.16479e-08 8.8369e-08 5.60426e-08 4.36629e-08 3.14779e-08 2.69027e-08 5.38449e-08 4.41679e-08 4.13367e-08 2.11108e-08
threshold=39.055469312180712 6.9999800765422027 3.5000000000000004 21.500000000000004 0.60597592987706783 6.9999800765422027 0.27178818610801575 60.184875633793453 56.430641867583795 31.561921542204228 48.930248383325775 51.163104734715063 70.662145829885148 80.077132201898621 3.5000000000000004 7.5000000000000009 92.286924125259631 94.241234179903316 4.5000000000000009 8.5000000000000018 92.669378872200255 4.5000000000000009 51.163104734715063 9.5000000000000018 12.500000000000002 0.32529970029970212 0.99876856150354654 10.500000000000002 19.500000000000004 0.64205620942295372
decision_type=2 2 2 2 2 2 2 2 2 2 2 2 2 2 2 2 2 2 2 2 2 2 2 2 2 2 2 2 2 2
left_child=5 22 8 4 6 -1 10 25 9 -3 -4 -12 14 18 -9 20 23 -18 19 -14 21 -15 -2 -17 -20 29 27 -27 -29 -7
right_child=1 2 3 -5 -6 7 -8 12 -10 -11 11 -13 13 15 -16 16 17 -19 24 -21 -22 -23 -24 -25 -26 26 -28 28 -30 -31
leaf_value=-0.046182874377373395 -0.046030516221122163 0.068681627760885183 0.06814772204605915 0.068869620139292473 0.068495680290542774 -0.046267587329873731 0.068264307488520512 -0.046151901234500671 0.068840639474151519 0.068751948587654502 0.068185424679131537 0.068148384984421828 -0.046148929318376164 -0.046161537425290639 -0.046191373320596224 -0.046191785283462614 -0.0460901190358231 -0.046180869284127672 -0.046163081795905558 -0.046108363632189661 -0.046171373351837519 -0.046126936542053534 -0.045988085660546706 -0.046168930031959446 -0.046144267515030757 -0.04626334172985247 -0.046266789962212618 -0.046230015597352611 -0.04625986805053147 -0.046274343291557177
leaf_weight=283.44394125882536 0.080003420123829883 6.7810935229063052 31.471944704651833 9.2280288040637952 5.3110034167766562 78.074659997597337 4.8134666234254828 0.28182654595002432 4.8542316406965247 7.0304163694381714 4.8076718747615841 22.102660283446312 0.16160818142816402 0.46071749273687623 1.4757364215329287 0.97219423577189423 0.15060579311102618 0.47956390213221312 0.46094508841633797 0.24780263006687164 0.42705313814803958 0.30781869124621153 2.8537114232312888 0.26618284080177546 0.42943276697769761 0.5419183624908317 3.168941673822701 0.27778842579573393 0.19905820954591036 1.1736852843314398
leaf_count=34591 20 28 131 38 22 7698 20 38 20 29 20 92 22 60 176 116 27 60 60 39 54 45 780 34 59 54 313 30 20 114
internal_value=-0.0228189 0.0649832 0.0683604 0.0682669 0.0681857 -0.0462016 0.0681597 -0.0462607 0.0687495 0.0687174 0.0681511 0.068155 -0.0461685 -0.0461619 -0.046185 -0.0461692 -0.0461775 -0.0461592 -0.0461447 -0.0461244 -0.0461561 -0.0461477 -0.0459892 -0.0461869 -0.046154 -0.0462675 -0.0462636 -0.0462536 -0.0462425 -0.0462677
internal_weight=472.336 99.3342 96.4005 77.7348 68.5067 373.001 63.1957 89.5575 18.6657 13.8115 58.3823 26.9103 6.12149 4.36392 1.75756 3.06414 1.86855 0.63017 1.29979 0.409411 1.19559 0.768536 2.93371 1.23838 0.890378 83.4361 4.18771 1.01876 0.476847 79.2483
internal_count=44810 1200 400 323 285 43610 263 9019 77 57 243 112 790 576 214 396 237 87 180 61 159 105 800 150 119 8229 417 104 50 7812
is_linear=0
shrinkage=0.05


Tree=31
num_leaves=31
num_cat=0
